{"learner":{"attributes":{"scikit_learn":"{\"_estimator_type\": \"regressor\"}"},"feature_names":["Easting","Northing","Borough_Barnet","Borough_Bexley","Borough_Brent","Borough_Bromley","Borough_Camden","Borough_City","Borough_City of Westminster","Borough_Croydon","Borough_Ealing","Borough_Enfield","Borough_Greenwich","Borough_Hackney","Borough_Hammersmith and Fulham","Borough_Haringey","Borough_Harrow","Borough_Havering","Borough_Hillingdon","Borough_Hounslow","Borough_Islington","Borough_Kensington and Chelsea","Borough_Kingston","Borough_Lambeth","Borough_Lewisham","Borough_Merton","Borough_Newham","Borough_Non GLA","Borough_Redbridge","Borough_Richmond","Borough_Southwark","Borough_Sutton","Borough_Tower Hamlets","Borough_Waltham Forest","Borough_Wandsworth","Zone_Inner","Zone_Non GLA","Zone_Outer","Main Source Category_Industrial and Commercial","Main Source Category_Miscellaneous","Main Source Category_Resuspension","Main Source Category_Transport","Sector_Agriculture","Sector_Aviation","Sector_Biomass","Sector_Commercial Cooking","Sector_Construction","Sector_Forestry","Sector_Gas Leakage","Sector_Heat and Power Generation","Sector_Industrial Processes","Sector_Machinery","Sector_Rail","Sector_Resuspension","Sector_River","Sector_Road Transport","Sector_Waste","Source_Agriculture","Source_Aviation","Source_Car - Diesel","Source_Car - Electric","Source_Car - Petrol","Source_Commercial Cooking","Source_Commercial Shipping","Source_Construction / Demolition Dust","Source_Forestry","Source_Freight","Source_Gas Combustion","Source_HGV - Articulated","Source_HGV - Rigid","Source_Household and Garden NRMM","Source_LGV - Diesel","Source_LGV - Electric","Source_LGV - Petrol","Source_Landfill","Source_Motorcycle","Source_NRMM Exhaust","Source_Natural Gas Leakage","Source_Non-TfL Bus / Coach","Source_Oil/Coal Combustion","Source_PHV - Diesel","Source_PHV - Electric","Source_PHV - Petrol","Source_Part A1","Source_Part A2 / B","Source_Passenger Shipping","Source_Passengers","Source_Resuspension","Source_STW","Source_Small Private Vessels","Source_Small Scale Waste Burning","Source_Taxi","Source_TfL Bus","Source_WTS","Source_Wood Burning"],"feature_types":["float","float","i","i","i","i","i","i","i","i","i","i","i","i","i","i","i","i","i","i","i","i","i","i","i","i","i","i","i","i","i","i","i","i","i","i","i","i","i","i","i","i","i","i","i","i","i","i","i","i","i","i","i","i","i","i","i","i","i","i","i","i","i","i","i","i","i","i","i","i","i","i","i","i","i","i","i","i","i","i","i","i","i","i","i","i","i","i","i","i","i","i","i","i","i"],"gradient_booster":{"model":{"gbtree_model_param":{"num_parallel_tree":"1","num_trees":"400"},"iteration_indptr":[0,4,8,12,16,20,24,28,32,36,40,44,48,52,56,60,64,68,72,76,80,84,88,92,96,100,104,108,112,116,120,124,128,132,136,140,144,148,152,156,160,164,168,172,176,180,184,188,192,196,200,204,208,212,216,220,224,228,232,236,240,244,248,252,256,260,264,268,272,276,280,284,288,292,296,300,304,308,312,316,320,324,328,332,336,340,344,348,352,356,360,364,368,372,376,380,384,388,392,396,400],"tree_info":[0,1,2,3,0,1,2,3,0,1,2,3,0,1,2,3,0,1,2,3,0,1,2,3,0,1,2,3,0,1,2,3,0,1,2,3,0,1,2,3,0,1,2,3,0,1,2,3,0,1,2,3,0,1,2,3,0,1,2,3,0,1,2,3,0,1,2,3,0,1,2,3,0,1,2,3,0,1,2,3,0,1,2,3,0,1,2,3,0,1,2,3,0,1,2,3,0,1,2,3,0,1,2,3,0,1,2,3,0,1,2,3,0,1,2,3,0,1,2,3,0,1,2,3,0,1,2,3,0,1,2,3,0,1,2,3,0,1,2,3,0,1,2,3,0,1,2,3,0,1,2,3,0,1,2,3,0,1,2,3,0,1,2,3,0,1,2,3,0,1,2,3,0,1,2,3,0,1,2,3,0,1,2,3,0,1,2,3,0,1,2,3,0,1,2,3,0,1,2,3,0,1,2,3,0,1,2,3,0,1,2,3,0,1,2,3,0,1,2,3,0,1,2,3,0,1,2,3,0,1,2,3,0,1,2,3,0,1,2,3,0,1,2,3,0,1,2,3,0,1,2,3,0,1,2,3,0,1,2,3,0,1,2,3,0,1,2,3,0,1,2,3,0,1,2,3,0,1,2,3,0,1,2,3,0,1,2,3,0,1,2,3,0,1,2,3,0,1,2,3,0,1,2,3,0,1,2,3,0,1,2,3,0,1,2,3,0,1,2,3,0,1,2,3,0,1,2,3,0,1,2,3,0,1,2,3,0,1,2,3,0,1,2,3,0,1,2,3,0,1,2,3,0,1,2,3,0,1,2,3,0,1,2,3,0,1,2,3,0,1,2,3,0,1,2,3,0,1,2,3,0,1,2,3,0,1,2,3,0,1,2,3,0,1,2,3,0,1,2,3],"trees":[{"base_weights":[-1.2762897E-4,-1.1550174E-2,4.6479732E-1,-2.0701287E-2,3.4843713E-1,1.6990463E0,4.5381272E-1,-3.2287575E-2,1.9833757E-1,3.2378533E-1,8.984137E-1,6.624244E-1,1.3065237E0,4.356367E-1,8.610546E-1,-3.9493818E-2,2.2985433E-1,1.7798148E-1,1.6705598E0,1.4624761E0,3.1290025E-1,7.674947E-1,4.7711292E-1,1.0158589E0,5.7736605E-1,9.982221E-1,4.2587715E-1,7.734892E-1,1.325495E0,-4.5314368E-2,1.6857675E-1,1.4603054E-2,4.890013E0,1.233774E-1,4.2540917E-1,1.886015E-1,3.108556E0,5.5296403E-1,1.1748815E0,1.357456E0,3.0321977E-1,3.2291642E-1,1.0155944E0,1.5519309E0,1.3178624E-1,8.923584E-1,4.9364623E-1,7.4733853E-1,4.159582E-1,4.0289986E-1,9.847416E-1,4.790778E-1,8.205196E-1,-1.48604065E-2,7.644163E-3,2.6242953E-2,1.0126562E0,-5.71132E-3,3.6778075E-1,7.600128E0,-1.9615773E-2,3.4763504E-2,7.478516E-1,6.029753E-2,1.9537538E-1,1.3670179E-1,3.4078803E-2,1.7050302E-1,1.0991457E0,1.9722939E-1,4.0070996E-1,4.3756622E-1,1.4619826E-1,1.10786356E-1,7.315634E-2,2.19025E-1,-1.9171638E-3,2.4693799E-1,3.4711465E-1,2.7164823E-1,6.982483E-1,1.9374331E-2,7.0171796E-2,3.570453E-1,1.386811E-1,3.0641448E-1,1.0158334E-1,1.4529325E-1,1.16648E-1,2.6272684E-1,1.6931713E-2,4.769766E-1,2.7154756E-1,3.9358425E-1,7.898202E-2],"categories":[],"categories_nodes":[],"categories_segments":[],"categories_sizes":[],"default_left":[0,0,0,0,0,0,0,0,0,0,0,0,0,0,0,0,0,0,0,0,0,0,0,0,0,0,0,0,0,0,0,0,0,0,0,0,0,0,0,0,0,0,0,0,0,0,0,0,0,0,0,0,0,0,0,0,0,0,0,0,0,0,0,0,0,0,0,0,0,0,0,0,0,0,0,0,0,0,0,0,0,0,0,0,0,0,0,0,0,0,0,0,0,0,0],"id":0,"left_children":[1,3,5,7,9,11,13,15,17,19,21,-1,23,25,27,29,31,33,35,37,39,41,-1,43,-1,45,47,49,51,53,55,57,59,61,63,65,67,-1,69,71,73,75,77,79,81,83,-1,85,87,89,91,-1,93,-1,-1,-1,-1,-1,-1,-1,-1,-1,-1,-1,-1,-1,-1,-1,-1,-1,-1,-1,-1,-1,-1,-1,-1,-1,-1,-1,-1,-1,-1,-1,-1,-1,-1,-1,-1,-1,-1,-1,-1,-1,-1],"loss_changes":[6.116886E2,3.7035068E2,3.6675293E1,2.7824075E2,3.7495026E1,1.9104767E0,1.9899048E1,1.9671106E2,1.6477022E2,3.2623993E1,9.559723E0,0E0,9.19157E-1,1.3982178E1,3.692337E0,1.22741486E2,2.7945796E3,7.336391E1,1.5924251E2,5.718956E-1,2.6334106E1,1.0922623E1,0E0,5.956525E0,0E0,1.5466003E0,7.9188538E0,7.432041E0,1.0198097E0,2.9456207E1,7.170163E2,1.0858184E2,1.2462408E4,7.883532E1,4.9639725E1,7.0944583E-1,5.1516144E1,0E0,5.3653145E-1,1.400444E0,1.0193848E1,5.099815E0,8.172531E-1,1.9032879E0,2.6071914E-2,4.5729103E0,0E0,8.166824E0,4.459076E0,6.1759663E0,1.5950851E0,0E0,1.8453693E0,0E0,0E0,0E0,0E0,0E0,0E0,0E0,0E0,0E0,0E0,0E0,0E0,0E0,0E0,0E0,0E0,0E0,0E0,0E0,0E0,0E0,0E0,0E0,0E0,0E0,0E0,0E0,0E0,0E0,0E0,0E0,0E0,0E0,0E0,0E0,0E0,0E0,0E0,0E0,0E0,0E0,0E0],"parents":[2147483647,0,0,1,1,2,2,3,3,4,4,5,5,6,6,7,7,8,8,9,9,10,10,12,12,13,13,14,14,15,15,16,16,17,17,18,18,19,19,20,20,21,21,23,23,25,25,26,26,27,27,28,28,29,29,30,30,31,31,32,32,33,33,34,34,35,35,36,36,38,38,39,39,40,40,41,41,42,42,43,43,44,44,45,45,47,47,48,48,49,49,50,50,52,52],"right_children":[2,4,6,8,10,12,14,16,18,20,22,-1,24,26,28,30,32,34,36,38,40,42,-1,44,-1,46,48,50,52,54,56,58,60,62,64,66,68,-1,70,72,74,76,78,80,82,84,-1,86,88,90,92,-1,94,-1,-1,-1,-1,-1,-1,-1,-1,-1,-1,-1,-1,-1,-1,-1,-1,-1,-1,-1,-1,-1,-1,-1,-1,-1,-1,-1,-1,-1,-1,-1,-1,-1,-1,-1,-1,-1,-1,-1,-1,-1,-1],"split_conditions":[1E0,1E0,-1.8053609E0,1E0,1.6537653E0,-1.8742372E0,1.6537653E0,1E0,1E0,-1.8053609E0,1.8948439E0,6.624244E-1,1.0108892E0,-1.8820534E0,1.8948439E0,1E0,1E0,1E0,1E0,-1.8742372E0,-1.962413E0,-5.65589E-1,4.7711292E-1,5.2873206E-1,5.7736605E-1,8.1193525E-1,-1.6676085E0,-5.65589E-1,1.9752034E0,1E0,1E0,1E0,-1.1414405E-1,1E0,1E0,-1.5233174E-1,-2.2120796E-1,5.5296403E-1,-5.159416E-1,6.053066E-1,1E0,-1.1165987E0,1.7341249E0,-5.159416E-1,9.3052965E-1,-1.962413E0,4.9364623E-1,6.090916E-1,-5.65589E-1,-1.1165987E0,-3.589604E-1,4.790778E-1,-1.1165987E0,-1.48604065E-2,7.644163E-3,2.6242953E-2,1.0126562E0,-5.71132E-3,3.6778075E-1,7.600128E0,-1.9615773E-2,3.4763504E-2,7.478516E-1,6.029753E-2,1.9537538E-1,1.3670179E-1,3.4078803E-2,1.7050302E-1,1.0991457E0,1.9722939E-1,4.0070996E-1,4.3756622E-1,1.4619826E-1,1.10786356E-1,7.315634E-2,2.19025E-1,-1.9171638E-3,2.4693799E-1,3.4711465E-1,2.7164823E-1,6.982483E-1,1.9374331E-2,7.0171796E-2,3.570453E-1,1.386811E-1,3.0641448E-1,1.0158334E-1,1.4529325E-1,1.16648E-1,2.6272684E-1,1.6931713E-2,4.769766E-1,2.7154756E-1,3.9358425E-1,7.898202E-2],"split_indices":[59,71,0,67,1,0,1,43,8,0,1,0,1,1,1,83,18,35,38,0,1,0,0,1,0,0,0,0,1,49,3,19,1,7,38,0,0,0,1,0,37,0,1,1,1,1,0,1,0,0,0,0,0,0,0,0,0,0,0,0,0,0,0,0,0,0,0,0,0,0,0,0,0,0,0,0,0,0,0,0,0,0,0,0,0,0,0,0,0,0,0,0,0,0,0],"split_type":[0,0,0,0,0,0,0,0,0,0,0,0,0,0,0,0,0,0,0,0,0,0,0,0,0,0,0,0,0,0,0,0,0,0,0,0,0,0,0,0,0,0,0,0,0,0,0,0,0,0,0,0,0,0,0,0,0,0,0,0,0,0,0,0,0,0,0,0,0,0,0,0,0,0,0,0,0,0,0,0,0,0,0,0,0,0,0,0,0,0,0,0,0,0,0],"sum_hessian":[1.1518E5,1.12419E5,2.761E3,1.09633E5,2.786E3,2.3E1,2.738E3,1.04126E5,5.507E3,2.668E3,1.18E2,8E0,1.5E1,2.623E3,1.15E2,1.01341E5,2.785E3,5.433E3,7.4E1,2.4E1,2.644E3,1.01E2,1.7E1,1.2E1,3E0,4.3E1,2.58E3,9.9E1,1.6E1,9.8584E4,2.757E3,2.663E3,1.22E2,4.452E3,9.81E2,3.7E1,3.7E1,8E0,1.6E1,2.3E1,2.621E3,3.7E1,6.4E1,7E0,5E0,3.9E1,4E0,7.5E1,2.505E3,3.7E1,6.2E1,9E0,7E0,9.3038E4,5.546E3,2.69E3,6.7E1,2.592E3,7.1E1,2.3E1,9.9E1,4.439E3,1.3E1,4.93E2,4.88E2,7E0,3E1,7E0,3E1,5E0,1.1E1,2E1,3E0,1.238E3,1.383E3,1.6E1,2.1E1,3E1,3.4E1,5E0,2E0,4E0,1E0,2.2E1,1.7E1,4.4E1,3.1E1,7.07E2,1.798E3,1.5E1,2.2E1,5E0,5.7E1,3E0,4E0],"tree_param":{"num_deleted":"0","num_feature":"95","num_nodes":"95","size_leaf_vector":"1"}},{"base_weights":[2.9999248E-4,-2.262051E-2,9.3149185E-1,-4.0599E-2,6.927438E-1,1.3575978E0,-2.828997E-2,-4.7540072E-2,2.2885986E-1,6.4013153E-1,2.539594E0,1.3054597E0,1.136791E1,-5.4096967E-2,1.9971624E-1,1.0683873E-1,2.4781202E-1,2.32334E0,6.06608E-1,1.9287965E0,4.0474544E0,1.1929771E0,6.0307198E0,1.2973295E0,1.786541E1,-6.065475E-2,1.8780926E-1,1.0279212E-1,2.1671364E-1,1.606576E-1,1.9529803E-2,2.644158E-1,1.4185812E-1,1.1217196E0,1.8972372E0,5.7661754E-1,1.4563726E0,1.3381331E0,4.512035E0,1.4479264E0,3.061027E0,1.075054E0,3.9739425E0,1.8710026E1,1.873489E0,-1.4162405E-2,1.6452659E0,2.1457375E1,-1.4162405E-2,-1.9842194E-2,4.0980503E-2,7.460842E-2,1.174984E-2,8.963829E-2,2.6340082E-2,1.6191286E-1,6.3986324E-2,8.455263E-2,4.489872E-2,4.151699E-2,7.1843487E-4,8.414452E-2,5.6649815E-2,4.939293E-2,-1.0721458E-3,6.725548E-1,3.591382E-1,4.971048E-1,1.6747308E-1,1.0090724E0,2.878034E-1,2.8752303E-1,9.208445E-1,1.4756722E0,1.275277E-1,1.1841855E0,4.5506668E-1,2.8793505E-1,7.907934E-1,1.0089786E0,2.8800855E0,8.624642E0,2.7411693E-1,8.886271E-1,8.702852E-3,6.67548E-1,-1.4162405E-2,8.053597E0,-1.4162405E-2],"categories":[],"categories_nodes":[],"categories_segments":[],"categories_sizes":[],"default_left":[0,0,0,0,0,0,0,0,0,0,0,0,0,0,0,0,0,0,0,0,0,0,0,0,0,0,0,0,0,0,0,0,0,0,0,0,0,0,0,0,0,0,0,0,0,0,0,0,0,0,0,0,0,0,0,0,0,0,0,0,0,0,0,0,0,0,0,0,0,0,0,0,0,0,0,0,0,0,0,0,0,0,0,0,0,0,0,0,0],"id":1,"left_children":[1,3,5,7,9,11,-1,13,15,17,19,21,23,25,27,29,31,33,35,37,39,41,43,45,47,49,51,53,55,57,59,61,63,-1,65,67,69,71,73,-1,75,77,79,81,83,-1,85,87,-1,-1,-1,-1,-1,-1,-1,-1,-1,-1,-1,-1,-1,-1,-1,-1,-1,-1,-1,-1,-1,-1,-1,-1,-1,-1,-1,-1,-1,-1,-1,-1,-1,-1,-1,-1,-1,-1,-1,-1,-1],"loss_changes":[2.4583735E3,1.4458165E3,1.2095725E3,2.0511162E2,2.6616626E2,1.00551074E3,0E0,1.7333203E2,6.342331E0,1.498717E2,6.2189117E1,1.027124E3,6.3115857E2,1.6522531E2,4.528E0,1.7448411E0,4.154724E0,2.4274841E1,6.618536E1,7.940846E1,1.3624878E0,6.19469E2,2.336933E3,2.4167376E0,3.870619E2,1.0973468E2,2.4869278E1,1.190278E0,2.484169E0,2.6428223E-1,2.9091254E-1,2.4473114E0,1.0775294E0,0E0,7.449417E0,4.9536743E1,8.1139206E1,2.7957527E1,1.4537628E1,0E0,1.04344635E1,3.2601978E2,2.32276E2,1.9389167E3,7.019066E1,0E0,4.0308666E0,5.805952E2,0E0,0E0,0E0,0E0,0E0,0E0,0E0,0E0,0E0,0E0,0E0,0E0,0E0,0E0,0E0,0E0,0E0,0E0,0E0,0E0,0E0,0E0,0E0,0E0,0E0,0E0,0E0,0E0,0E0,0E0,0E0,0E0,0E0,0E0,0E0,0E0,0E0,0E0,0E0,0E0,0E0],"parents":[2147483647,0,0,1,1,2,2,3,3,4,4,5,5,7,7,8,8,9,9,10,10,11,11,12,12,13,13,14,14,15,15,16,16,17,17,18,18,19,19,20,20,21,21,22,22,23,23,24,24,25,25,26,26,27,27,28,28,29,29,30,30,31,31,32,32,34,34,35,35,36,36,37,37,38,38,40,40,41,41,42,42,43,43,44,44,46,46,47,47],"right_children":[2,4,6,8,10,12,-1,14,16,18,20,22,24,26,28,30,32,34,36,38,40,42,44,46,48,50,52,54,56,58,60,62,64,-1,66,68,70,72,74,-1,76,78,80,82,84,-1,86,88,-1,-1,-1,-1,-1,-1,-1,-1,-1,-1,-1,-1,-1,-1,-1,-1,-1,-1,-1,-1,-1,-1,-1,-1,-1,-1,-1,-1,-1,-1,-1,-1,-1,-1,-1,-1,-1,-1,-1,-1,-1],"split_conditions":[1E0,1E0,1E0,1E0,1.7341249E0,1E0,-2.828997E-2,1E0,-1.2391773E0,-1.7364846E0,1.8948439E0,1E0,2.0729402E-1,1E0,-1.1588178E0,3.9867797E-1,1.2940688E0,-1.8742372E0,1.7762023E0,1E0,-9.788463E-1,1E0,2.0729402E-1,1.9204932E-1,2.8765354E-1,1E0,1E0,-1.2543511E0,-1.8053609E0,-1.3232274E0,-1.8820534E0,1.1716082E0,1.1716082E0,1.1217196E0,6.090916E-1,-1.8820534E0,1.269345E-1,8.1193525E-1,4.6755418E-1,1.4479264E0,1.9752034E0,1E0,4.6574987E-2,9.496877E-1,4.4837257E-1,-1.4162405E-2,1E0,1E0,-1.4162405E-2,-1.9842194E-2,4.0980503E-2,7.460842E-2,1.174984E-2,8.963829E-2,2.6340082E-2,1.6191286E-1,6.3986324E-2,8.455263E-2,4.489872E-2,4.151699E-2,7.1843487E-4,8.414452E-2,5.6649815E-2,4.939293E-2,-1.0721458E-3,6.725548E-1,3.591382E-1,4.971048E-1,1.6747308E-1,1.0090724E0,2.878034E-1,2.8752303E-1,9.208445E-1,1.4756722E0,1.275277E-1,1.1841855E0,4.5506668E-1,2.8793505E-1,7.907934E-1,1.0089786E0,2.8800855E0,8.624642E0,2.7411693E-1,8.886271E-1,8.702852E-3,6.67548E-1,-1.4162405E-2,8.053597E0,-1.4162405E-2],"split_indices":[64,40,27,61,1,7,0,59,1,0,1,26,1,44,1,0,0,0,0,11,0,19,1,0,1,45,27,0,0,0,1,1,1,0,1,1,1,0,0,0,1,18,1,0,1,0,35,35,0,0,0,0,0,0,0,0,0,0,0,0,0,0,0,0,0,0,0,0,0,0,0,0,0,0,0,0,0,0,0,0,0,0,0,0,0,0,0,0,0],"split_type":[0,0,0,0,0,0,0,0,0,0,0,0,0,0,0,0,0,0,0,0,0,0,0,0,0,0,0,0,0,0,0,0,0,0,0,0,0,0,0,0,0,0,0,0,0,0,0,0,0,0,0,0,0,0,0,0,0,0,0,0,0,0,0,0,0,0,0,0,0,0,0,0,0,0,0,0,0,0,0,0,0,0,0,0,0,0,0,0,0],"sum_hessian":[1.1518E5,1.12414E5,2.766E3,1.09659E5,2.755E3,1.954E3,8.12E2,1.06906E5,2.753E3,2.68E3,7.5E1,1.945E3,9E0,1.04145E5,2.761E3,3.71E2,2.382E3,5.1E1,2.629E3,5.5E1,2E1,1.901E3,4.4E1,4E0,5E0,1.01397E5,2.748E3,4.13E2,2.348E3,2.29E2,1.42E2,2.058E3,3.24E2,1E1,4.1E1,2.541E3,8.8E1,4.6E1,9E0,9E0,1.1E1,1.825E3,7.6E1,1E1,3.4E1,1E0,3E0,4E0,1E0,9.8654E4,2.743E3,1.949E3,7.99E2,2.8E1,3.85E2,2.3E1,2.325E3,1.7E1,2.12E2,1.7E1,1.25E2,1.695E3,3.63E2,2.8E2,4.4E1,2.6E1,1.5E1,4.1E1,2.5E3,1.7E1,7.1E1,3.9E1,7E0,8E0,1E0,6E0,5E0,1.701E3,1.24E2,7E1,6E0,6E0,4E0,2.1E1,1.3E1,2E0,1E0,3E0,1E0],"tree_param":{"num_deleted":"0","num_feature":"95","num_nodes":"89","size_leaf_vector":"1"}},{"base_weights":[-9.225554E-4,-2.4663191E-2,9.700603E-1,-4.439448E-2,7.6409394E-1,1.2149208E0,3.7200028E-1,-5.8824144E-2,5.142565E-1,5.9469736E-1,1.1917372E1,4.9638584E-1,1.2706516E0,5.1732117E-1,2.0256634E-1,-7.246259E-2,4.5710078E-1,3.0518007E-1,5.508863E-1,5.4814845E-1,5.9968452E0,2.0947372E1,5.3002768E0,7.801622E-1,-9.768741E-3,5.107479E-1,1.3087473E0,3.4985855E-1,6.021792E-1,8.43349E-2,2.9583022E-1,-8.138507E-2,2.5215998E-1,2.4039958E-1,4.907373E-1,8.026588E-1,2.6701412E-1,1.3554201E0,5.423481E-1,5.0155234E-1,4.650528E0,1.1589387E-1,7.2288404E0,2.81796E1,2.9916854E0,6.7827044E0,2.3983653E0,1.8272695E-1,8.956728E-1,-2.8180601E-2,7.037912E-2,-1.6578667E-2,7.321522E-1,1.0502702E0,1.4370711E0,6.6629475E-1,1.112075E-1,9.3177104E-1,4.5671654E-1,2.3223352E-1,-3.554373E-2,9.465085E-1,1.6698602E-1,-2.7184797E-2,7.429842E-2,6.471672E-2,1.2340543E-1,1.03472926E-1,2.118756E-2,1.5611582E-1,9.041735E-2,3.817334E-1,1.9553049E-1,2.298158E-1,7.042438E-2,5.6003255E-1,2.3374113E-1,1.6981813E-1,1.1554449E-1,9.8070875E-2,4.0135777E-1,8.0268866E-1,3.227175E0,9.9202715E-2,-6.1411527E-3,6.9719E-1,2.5145628E0,1.0105471E1,1.3061753E-1,2.2317778E-1,1.4974408E0,2.9535253E0,1.3487118E0,-2.4753464E-2,8.0495584E-1,-1.7622408E-2,1.784893E-1,6.798968E-2,2.9808265E-1,3.7200593E-3,-1.8247122E-2,3.4806095E-2,-8.126324E-3,-3.0386234E-2,4.9227916E-2,3.253581E-1,1.2652263E-2,-2.2769932E-4,3.4776226E-1,4.4124025E-1,7.585329E-2,1.3750322E-1,3.271415E-1,5.1648794E-3,1.0481537E-1,3.0698044E-2,3.544702E-1,1.807081E-1,5.0183944E-2,4.8738167E-2,1.1124742E-1,1.3478299E-2,-1.3771564E-2,1.3650404E-1,5.4289955E-1,1.10644616E-1,-5.074267E-3],"categories":[],"categories_nodes":[],"categories_segments":[],"categories_sizes":[],"default_left":[0,0,0,0,0,0,0,0,0,0,0,0,0,0,0,0,0,0,0,0,0,0,0,0,0,0,0,0,0,0,0,0,0,0,0,0,0,0,0,0,0,0,0,0,0,0,0,0,0,0,0,0,0,0,0,0,0,0,0,0,0,0,0,0,0,0,0,0,0,0,0,0,0,0,0,0,0,0,0,0,0,0,0,0,0,0,0,0,0,0,0,0,0,0,0,0,0,0,0,0,0,0,0,0,0,0,0,0,0,0,0,0,0,0,0,0,0,0,0,0,0,0,0,0,0,0,0],"id":2,"left_children":[1,3,5,7,9,11,13,15,17,19,21,23,25,27,29,31,33,35,37,39,41,43,45,47,49,51,53,55,57,59,61,63,65,67,69,71,73,75,77,79,81,83,85,87,89,91,93,95,97,99,101,103,105,107,109,111,113,115,117,119,121,123,125,-1,-1,-1,-1,-1,-1,-1,-1,-1,-1,-1,-1,-1,-1,-1,-1,-1,-1,-1,-1,-1,-1,-1,-1,-1,-1,-1,-1,-1,-1,-1,-1,-1,-1,-1,-1,-1,-1,-1,-1,-1,-1,-1,-1,-1,-1,-1,-1,-1,-1,-1,-1,-1,-1,-1,-1,-1,-1,-1,-1,-1,-1,-1,-1],"loss_changes":[2.6551472E3,1.7498506E3,4.0211523E2,8.842573E2,5.177228E3,7.745581E1,1.9593048E1,7.524297E2,2.0984436E1,6.766714E2,2.3388203E3,2.0403748E1,5.1700684E1,5.8998566E0,4.0659657E0,3.0175995E2,1.9956116E1,7.6461983E0,1.5400696E1,5.103452E2,1.658042E2,2.1233096E3,9.127948E1,6.1162567E0,7.871822E-2,1.0286346E1,5.5607178E1,1.1027025E1,1.3190346E1,2.9336853E0,1.7196024E1,3.0798462E2,1.6077393E1,6.57609E0,1.3221008E1,1.2263603E0,6.035574E0,5.6179695E0,8.4522705E0,3.8706122E2,3.3302234E2,1.5321204E-1,8.797522E1,1.8182158E3,2.3256916E1,6.779785E1,7.287449E0,1.6276252E0,4.7545815E0,5.7715666E-2,4.762777E-2,4.298415E-1,1.5028374E1,6.58363E1,4.54834E1,5.0572853E0,1.8968421E0,1.7697617E1,8.288017E0,6.5532947E-1,7.8772284E-2,1.3600645E1,6.4645042E0,0E0,0E0,0E0,0E0,0E0,0E0,0E0,0E0,0E0,0E0,0E0,0E0,0E0,0E0,0E0,0E0,0E0,0E0,0E0,0E0,0E0,0E0,0E0,0E0,0E0,0E0,0E0,0E0,0E0,0E0,0E0,0E0,0E0,0E0,0E0,0E0,0E0,0E0,0E0,0E0,0E0,0E0,0E0,0E0,0E0,0E0,0E0,0E0,0E0,0E0,0E0,0E0,0E0,0E0,0E0,0E0,0E0,0E0,0E0,0E0,0E0,0E0,0E0,0E0],"parents":[2147483647,0,0,1,1,2,2,3,3,4,4,5,5,6,6,7,7,8,8,9,9,10,10,11,11,12,12,13,13,14,14,15,15,16,16,17,17,18,18,19,19,20,20,21,21,22,22,23,23,24,24,25,25,26,26,27,27,28,28,29,29,30,30,31,31,32,32,33,33,34,34,35,35,36,36,37,37,38,38,39,39,40,40,41,41,42,42,43,43,44,44,45,45,46,46,47,47,48,48,49,49,50,50,51,51,52,52,53,53,54,54,55,55,56,56,57,57,58,58,59,59,60,60,61,61,62,62],"right_children":[2,4,6,8,10,12,14,16,18,20,22,24,26,28,30,32,34,36,38,40,42,44,46,48,50,52,54,56,58,60,62,64,66,68,70,72,74,76,78,80,82,84,86,88,90,92,94,96,98,100,102,104,106,108,110,112,114,116,118,120,122,124,126,-1,-1,-1,-1,-1,-1,-1,-1,-1,-1,-1,-1,-1,-1,-1,-1,-1,-1,-1,-1,-1,-1,-1,-1,-1,-1,-1,-1,-1,-1,-1,-1,-1,-1,-1,-1,-1,-1,-1,-1,-1,-1,-1,-1,-1,-1,-1,-1,-1,-1,-1,-1,-1,-1,-1,-1,-1,-1,-1,-1,-1,-1,-1,-1],"split_conditions":[1E0,1E0,1E0,1E0,1E0,-1.1588178E0,-2.9008418E-1,1E0,-1.1588178E0,1E0,1E0,1E0,-1.3921037E0,-1.4609798E0,-8.373797E-1,1E0,-1.2391773E0,-1.2543511E0,-1.8053609E0,1E0,-3.589604E-1,5.42969E-2,2.8765354E-1,-3.589604E-1,-1.2391773E0,-3.378453E-2,1E0,-4.3558213E-1,-1.185475E0,4.6755418E-1,-2.748631E-1,1E0,1E0,3.9867797E-1,1.2940688E0,-1.5987322E0,-1.962413E0,5.2873206E-1,1.2940688E0,1E0,5.42969E-2,1.269345E-1,-3.378453E-2,2.8765354E-1,2.0729402E-1,-1.5233174E-1,-3.589604E-1,-1.2391773E0,-1.6409749E0,9.496877E-1,1.0874401E0,-1.4609798E0,7.698106E-1,1E0,1.5734059E0,-6.7666066E-1,1.2519678E0,-1.1588178E0,1.4930463E0,1.9204932E-1,5.364304E-1,-4.3558213E-1,1.1563164E0,-2.7184797E-2,7.429842E-2,6.471672E-2,1.2340543E-1,1.03472926E-1,2.118756E-2,1.5611582E-1,9.041735E-2,3.817334E-1,1.9553049E-1,2.298158E-1,7.042438E-2,5.6003255E-1,2.3374113E-1,1.6981813E-1,1.1554449E-1,9.8070875E-2,4.0135777E-1,8.0268866E-1,3.227175E0,9.9202715E-2,-6.1411527E-3,6.9719E-1,2.5145628E0,1.0105471E1,1.3061753E-1,2.2317778E-1,1.4974408E0,2.9535253E0,1.3487118E0,-2.4753464E-2,8.0495584E-1,-1.7622408E-2,1.784893E-1,6.798968E-2,2.9808265E-1,3.7200593E-3,-1.8247122E-2,3.4806095E-2,-8.126324E-3,-3.0386234E-2,4.9227916E-2,3.253581E-1,1.2652263E-2,-2.2769932E-4,3.4776226E-1,4.4124025E-1,7.585329E-2,1.3750322E-1,3.271415E-1,5.1648794E-3,1.0481537E-1,3.0698044E-2,3.544702E-1,1.807081E-1,5.0183944E-2,4.8738167E-2,1.1124742E-1,1.3478299E-2,-1.3771564E-2,1.3650404E-1,5.4289955E-1,1.10644616E-1,-5.074267E-3],"split_indices":[44,45,27,59,8,1,0,61,1,21,35,5,0,0,1,71,1,0,0,6,0,0,1,0,1,1,37,1,0,0,1,64,35,0,0,0,1,1,0,35,0,1,1,1,1,0,0,1,1,0,0,0,1,35,1,1,1,1,1,0,0,1,0,0,0,0,0,0,0,0,0,0,0,0,0,0,0,0,0,0,0,0,0,0,0,0,0,0,0,0,0,0,0,0,0,0,0,0,0,0,0,0,0,0,0,0,0,0,0,0,0,0,0,0,0,0,0,0,0,0,0,0,0,0,0,0,0],"split_type":[0,0,0,0,0,0,0,0,0,0,0,0,0,0,0,0,0,0,0,0,0,0,0,0,0,0,0,0,0,0,0,0,0,0,0,0,0,0,0,0,0,0,0,0,0,0,0,0,0,0,0,0,0,0,0,0,0,0,0,0,0,0,0,0,0,0,0,0,0,0,0,0,0,0,0,0,0,0,0,0,0,0,0,0,0,0,0,0,0,0,0,0,0,0,0,0,0,0,0,0,0,0,0,0,0,0,0,0,0,0,0,0,0,0,0,0,0,0,0,0,0,0,0,0,0,0,0],"sum_hessian":[1.1518E5,1.12432E5,2.748E3,1.09689E5,2.743E3,1.949E3,7.99E2,1.06928E5,2.761E3,2.703E3,4E1,1.41E2,1.808E3,4.29E2,3.7E2,1.04175E5,2.753E3,4.13E2,2.348E3,2.681E3,2.2E1,1.6E1,2.4E1,9E1,5.1E1,8.7E1,1.721E3,1.46E2,2.83E2,1.64E2,2.06E2,1.01389E5,2.786E3,3.71E2,2.382E3,2.8E1,3.85E2,2.3E1,2.325E3,2.652E3,2.9E1,4E0,1.8E1,1.1E1,5E0,1.5E1,9E0,1.5E1,7.5E1,4.2E1,9E0,2.6E1,6.1E1,5.74E2,1.147E3,6.2E1,8.4E1,8.5E1,1.98E2,7.3E1,9.1E1,3.3E1,1.73E2,9.8623E4,2.766E3,2.269E3,5.17E2,2.29E2,1.42E2,2.058E3,3.24E2,5E0,2.3E1,2.2E1,3.63E2,1.1E1,1.2E1,2.018E3,3.07E2,2.195E3,4.57E2,2.3E1,6E0,1E0,3E0,4E0,1.4E1,9E0,2E0,3E0,2E0,5E0,1E1,1E0,8E0,1E1,5E0,1E1,6.5E1,1.9E1,2.3E1,6E0,3E0,1.8E1,8E0,4E1,2.1E1,5.4E1,5.2E2,1.115E3,3.2E1,4.3E1,1.9E1,6.1E1,2.3E1,2E1,6.5E1,1.31E2,6.7E1,5E1,2.3E1,1E1,8.1E1,2.2E1,1.1E1,8.2E1,9.1E1],"tree_param":{"num_deleted":"0","num_feature":"95","num_nodes":"127","size_leaf_vector":"1"}},{"base_weights":[7.5019285E-4,-6.4212405E-3,2.900681E-1,-1.51495235E-2,1.0353415E-1,5.3147733E-2,5.4190583E0,-1.5853103E-2,-2.5487656E-3,5.7262786E-2,1.8611394E0,2.9111275E-2,9.180559E-1,2.779343E1,-4.9817474E-3,-1.5889624E-2,-1.4581676E-2,-4.7735414E-3,1.1144252E-2,4.17783E-2,3.8432154E-1,3.6440578E-1,9.686262E0,5.493794E-1,1.8874437E-2,1.6652341E0,-4.630371E-3,5.2262645E0,3.8750374E1,5.019848E-3,-4.4068657E-3,-4.7746347E-3,-1.50154205E-2,-1.4702447E-2,-5.983505E-3,8.254269E-3,2.1497506E-1,3.289389E-2,3.796248E-1,1.274456E0,3.817728E-3,2.5052075E0,-4.7293548E-3,2.5954552E0,2.4276546E1,1.2028424E0,-7.014418E-3,8.366891E-3,5.222675E-1,-4.5983926E-3,4.7873726E0,-3.1824985E-3,6.724029E0,3.4704776E0,5.022113E1,-1.3304322E-2,5.8196664E-2,-4.607824E-3,-4.2366483E-3,-4.536369E-3,-3.8503178E-3,7.398412E-4,-2.9078568E-3,2.2054678E-3,8.272284E-2,9.574305E-3,7.658456E-2,9.1080025E-2,7.2272276E-3,-3.580625E-3,3.4709802E-1,-4.6898383E-3,2.2158678E0,1.8784814E-2,-2.404418E-3,1.851667E0,-4.4796825E-3,-4.4108424E-3,1.8753439E0,1.5754213E0,1.3816931E1,-4.523925E-3,1.6771134E0,-5.4714823E-5,-4.150028E-3,1.4346291E-4,8.564783E-2,6.391008E-1,-4.023405E-3,1.969558E0,9.2106867E-1,3.3781445E-1,2.6214037E0,4.9939655E-2,1.6852993E0,1.9741114E1,7.8151256E-1,-4.6304213E-3,1.891061E-4,1.3771919E-3,3.1046664E-2],"categories":[],"categories_nodes":[],"categories_segments":[],"categories_sizes":[],"default_left":[0,0,0,0,0,0,0,0,0,0,0,0,0,0,0,0,0,0,0,0,0,0,0,0,0,0,0,0,0,0,0,0,0,0,0,0,0,0,0,0,0,0,0,0,0,0,0,0,0,0,0,0,0,0,0,0,0,0,0,0,0,0,0,0,0,0,0,0,0,0,0,0,0,0,0,0,0,0,0,0,0,0,0,0,0,0,0,0,0,0,0,0,0,0,0,0,0,0,0,0,0],"id":3,"left_children":[1,3,5,7,9,11,13,15,17,19,21,23,25,27,29,31,33,-1,35,37,39,41,43,45,47,49,-1,51,53,55,-1,-1,57,59,61,63,65,67,69,71,73,75,-1,77,79,81,83,85,87,-1,89,-1,91,93,95,97,99,-1,-1,-1,-1,-1,-1,-1,-1,-1,-1,-1,-1,-1,-1,-1,-1,-1,-1,-1,-1,-1,-1,-1,-1,-1,-1,-1,-1,-1,-1,-1,-1,-1,-1,-1,-1,-1,-1,-1,-1,-1,-1,-1,-1],"loss_changes":[2.3898218E2,1.0787046E2,3.385154E3,9.231472E-1,6.7214075E2,5.535604E1,1.49273545E4,4.350662E-3,1.0080329E0,4.077717E1,2.479441E3,1.379969E1,5.0244526E1,5.7318906E3,9.783092E-3,1.9226074E-3,2.7843714E-3,0E0,1.6010785E0,2.307557E1,1.2328178E2,1.4572208E2,3.4545256E3,1.8187572E1,1.3451931E1,2.0995131E2,0E0,7.066377E1,6.300703E3,4.9495317E-2,0E0,0E0,6.33657E-4,1.9392967E-3,1.2776119E-3,6.460635E-1,2.7223933E-1,1.7856121E1,5.9977974E1,8.595505E2,1.7860833E-1,2.4960973E2,0E0,2.2909825E2,4.316159E3,1.22988846E2,1.3019326E-3,5.4499545E0,4.4821793E1,0E0,2.2582184E1,0E0,6.908023E1,3.45365E1,8.732357E3,1.1378224E-3,3.1088084E-2,0E0,0E0,0E0,0E0,0E0,0E0,0E0,0E0,0E0,0E0,0E0,0E0,0E0,0E0,0E0,0E0,0E0,0E0,0E0,0E0,0E0,0E0,0E0,0E0,0E0,0E0,0E0,0E0,0E0,0E0,0E0,0E0,0E0,0E0,0E0,0E0,0E0,0E0,0E0,0E0,0E0,0E0,0E0,0E0],"parents":[2147483647,0,0,1,1,2,2,3,3,4,4,5,5,6,6,7,7,8,8,9,9,10,10,11,11,12,12,13,13,14,14,15,15,16,16,18,18,19,19,20,20,21,21,22,22,23,23,24,24,25,25,27,27,28,28,29,29,32,32,33,33,34,34,35,35,36,36,37,37,38,38,39,39,40,40,41,41,43,43,44,44,45,45,46,46,47,47,48,48,50,50,52,52,53,53,54,54,55,55,56,56],"right_children":[2,4,6,8,10,12,14,16,18,20,22,24,26,28,30,32,34,-1,36,38,40,42,44,46,48,50,-1,52,54,56,-1,-1,58,60,62,64,66,68,70,72,74,76,-1,78,80,82,84,86,88,-1,90,-1,92,94,96,98,100,-1,-1,-1,-1,-1,-1,-1,-1,-1,-1,-1,-1,-1,-1,-1,-1,-1,-1,-1,-1,-1,-1,-1,-1,-1,-1,-1,-1,-1,-1,-1,-1,-1,-1,-1,-1,-1,-1,-1,-1,-1,-1,-1,-1],"split_conditions":[1E0,1E0,1E0,1E0,1E0,1E0,-1.1414405E-1,1E0,1E0,1E0,4.6574987E-2,-1.7364846E0,-1.1414405E-1,-2.748631E-1,6.090916E-1,1E0,1E0,-4.7735414E-3,1E0,1E0,1.269345E-1,-5.159416E-1,1E0,-1.1414405E-1,1E0,-2.748631E-1,-4.630371E-3,-3.552226E-1,-1.6676085E0,4.4837257E-1,-4.4068657E-3,-4.7746347E-3,1E0,1E0,1E0,1E0,-2.2120796E-1,-1.6676085E0,1E0,4.6574987E-2,2.8765354E-1,1.2251925E0,-4.7293548E-3,1.4318212E0,1.4318212E0,-3.552226E-1,8.5017014E-1,1E0,2.0729402E-1,-4.5983926E-3,-1.9450356E-1,-3.1824985E-3,-1.5987322E0,-1.7364846E0,-1.3921037E0,3.6801305E-1,-1.3921037E0,-4.607824E-3,-4.2366483E-3,-4.536369E-3,-3.8503178E-3,7.398412E-4,-2.9078568E-3,2.2054678E-3,8.272284E-2,9.574305E-3,7.658456E-2,9.1080025E-2,7.2272276E-3,-3.580625E-3,3.4709802E-1,-4.6898383E-3,2.2158678E0,1.8784814E-2,-2.404418E-3,1.851667E0,-4.4796825E-3,-4.4108424E-3,1.8753439E0,1.5754213E0,1.3816931E1,-4.523925E-3,1.6771134E0,-5.4714823E-5,-4.150028E-3,1.4346291E-4,8.564783E-2,6.391008E-1,-4.023405E-3,1.969558E0,9.2106867E-1,3.3781445E-1,2.6214037E0,4.9939655E-2,1.6852993E0,1.9741114E1,7.8151256E-1,-4.6304213E-3,1.891061E-4,1.3771919E-3,3.1046664E-2],"split_indices":[43,50,18,67,3,19,1,76,38,18,1,0,1,1,1,42,8,0,8,12,1,1,83,1,26,1,0,1,0,1,0,0,36,35,35,7,0,0,84,1,1,0,0,0,0,1,1,29,1,0,1,0,0,0,0,1,0,0,0,0,0,0,0,0,0,0,0,0,0,0,0,0,0,0,0,0,0,0,0,0,0,0,0,0,0,0,0,0,0,0,0,0,0,0,0,0,0,0,0,0,0],"split_type":[0,0,0,0,0,0,0,0,0,0,0,0,0,0,0,0,0,0,0,0,0,0,0,0,0,0,0,0,0,0,0,0,0,0,0,0,0,0,0,0,0,0,0,0,0,0,0,0,0,0,0,0,0,0,0,0,0,0,0,0,0,0,0,0,0,0,0,0,0,0,0,0,0,0,0,0,0,0,0,0,0,0,0,0,0,0,0,0,0,0,0,0,0,0,0,0,0,0,0,0,0],"sum_hessian":[1.1518E5,1.12395E5,2.785E3,1.0413E5,8.265E3,2.663E3,1.22E2,9.8623E4,5.507E3,8.054E3,2.11E2,2.592E3,7.1E1,2.3E1,9.9E1,9.5858E4,2.765E3,2.787E3,2.72E3,7.691E3,3.63E2,1.78E2,3.3E1,4.9E1,2.543E3,3.9E1,3.2E1,8E0,1.5E1,4.9E1,5E1,9.3091E4,2.767E3,2.726E3,3.9E1,2.683E3,3.7E1,7.495E3,1.96E2,1.08E2,2.55E2,2.6E1,1.52E2,2.3E1,1E1,2.2E1,2.7E1,2.492E3,5.1E1,2.6E1,1.3E1,2E0,6E0,4E0,1.1E1,3.7E1,1.2E1,1.986E3,7.81E2,2.221E3,5.05E2,1.2E1,2.7E1,2.675E3,8E0,7E0,3E1,2.35E2,7.26E3,1.31E2,6.5E1,9E1,1.8E1,4.2E1,2.13E2,1E1,1.6E1,1.4E1,9E0,6E0,4E0,1.8E1,4E0,1.4E1,1.3E1,2.424E3,6.8E1,1.2E1,3.9E1,5E0,8E0,2E0,4E0,2E0,2E0,8E0,3E0,3.2E1,5E0,6E0,6E0],"tree_param":{"num_deleted":"0","num_feature":"95","num_nodes":"101","size_leaf_vector":"1"}},{"base_weights":[8.9493326E-5,-7.9547195E-3,3.2750812E-1,-1.4386435E-2,2.4505664E-1,1.2851337E0,3.1899753E-1,-2.2515116E-2,1.3928632E-1,2.2736858E-1,6.397154E-1,4.8577788E-1,1.016867E0,3.0557805E-1,6.198057E-1,-2.7635492E-2,1.6374892E-1,1.2477811E-1,1.1885976E0,1.0697695E0,2.1932042E-1,5.451988E-1,1.1397696E0,7.9259676E-1,4.4745865E-1,7.212412E-1,2.9837358E-1,5.5172426E-1,9.8382556E-1,-3.172013E-2,1.1838041E-1,1.0358053E-2,3.4846394E0,1.1275621E-1,1.0443884E0,1.3651526E-1,2.2094011E0,1.3516898E0,8.575899E-1,7.857255E-1,2.0965818E-1,2.3175485E-1,7.200553E-1,3.968254E-1,7.4569863E-1,1.2075887E0,1.07174724E-1,4.9373645E-1,6.3802975E-1,4.8805112E-1,2.8941074E-1,2.8938934E-1,7.012005E-1,3.4972677E-1,6.3343453E-1,-1.0251932E-2,1.7253075E-2,1.8372992E-2,7.13327E-1,3.519725E-1,-3.564233E-3,5.4150915E0,-1.3789888E-2,3.1636585E-2,3.2461712E-1,4.036364E-2,5.699842E-1,8.331869E-2,1.55925015E-2,8.677162E-1,2.0204246E-1,1.1097017E-1,4.284528E-1,2.0285212E-1,3.8344476E-1,2.0279174E-1,4.519814E-1,5.8734592E-2,1.01315804E-1,1.5718263E-1,-1.3681581E-3,3.151533E-1,1.9657367E-1,-7.953729E-2,2.7839306E-1,2.0373617E-1,5.5859864E-1,1.4724491E-2,5.964603E-2,1.4052258E-1,3.0691457E-1,3.9621243E-1,1.1618476E-1,5.6249373E-2,9.210543E-2,1.888349E-1,1.20730465E-2,3.5773245E-1,1.9148785E-1,-6.540236E-2,2.3586394E-1],"categories":[],"categories_nodes":[],"categories_segments":[],"categories_sizes":[],"default_left":[0,0,0,0,0,0,0,0,0,0,0,0,0,0,0,0,0,0,0,0,0,0,0,0,0,0,0,0,0,0,0,0,0,0,0,0,0,0,0,0,0,0,0,0,0,0,0,0,0,0,0,0,0,0,0,0,0,0,0,0,0,0,0,0,0,0,0,0,0,0,0,0,0,0,0,0,0,0,0,0,0,0,0,0,0,0,0,0,0,0,0,0,0,0,0,0,0,0,0,0,0],"id":4,"left_children":[1,3,5,7,9,11,13,15,17,19,21,-1,23,25,27,29,31,33,35,37,39,41,43,45,-1,47,49,51,53,55,57,59,61,63,65,67,69,71,73,75,77,79,81,-1,83,85,87,-1,89,91,93,95,97,-1,99,-1,-1,-1,-1,-1,-1,-1,-1,-1,-1,-1,-1,-1,-1,-1,-1,-1,-1,-1,-1,-1,-1,-1,-1,-1,-1,-1,-1,-1,-1,-1,-1,-1,-1,-1,-1,-1,-1,-1,-1,-1,-1,-1,-1,-1,-1],"loss_changes":[3.0336923E2,1.8294426E2,2.210025E1,1.3695319E2,1.9309906E1,5.046654E-1,1.0867096E1,9.93148E1,8.370347E1,1.7860596E1,5.002945E0,0E0,5.2105904E-1,7.6427155E0,2.3320236E0,6.0446404E1,1.4191364E3,5.9957634E1,8.024608E1,3.362484E-1,1.4310669E1,5.4235096E0,3.115654E-1,3.5683565E0,0E0,2.3349857E0,4.246582E0,3.718361E0,3.4526634E-1,2.158023E1,3.5589624E2,6.89081E1,6.3261807E3,3.7852943E1,5.4234062E1,4.3921816E-1,3.7914673E1,1.475544E-1,4.32786E-1,2.4627972E0,4.5576477E0,2.6262264E0,7.037468E-1,0E0,1.7200365E0,1.5021448E0,2.2185348E-2,0E0,2.2637043E0,9.137667E0,4.3692627E0,3.1942043E0,1.1857529E0,0E0,1.2120581E0,0E0,0E0,0E0,0E0,0E0,0E0,0E0,0E0,0E0,0E0,0E0,0E0,0E0,0E0,0E0,0E0,0E0,0E0,0E0,0E0,0E0,0E0,0E0,0E0,0E0,0E0,0E0,0E0,0E0,0E0,0E0,0E0,0E0,0E0,0E0,0E0,0E0,0E0,0E0,0E0,0E0,0E0,0E0,0E0,0E0,0E0],"parents":[2147483647,0,0,1,1,2,2,3,3,4,4,5,5,6,6,7,7,8,8,9,9,10,10,12,12,13,13,14,14,15,15,16,16,17,17,18,18,19,19,20,20,21,21,22,22,23,23,25,25,26,26,27,27,28,28,29,29,30,30,31,31,32,32,33,33,34,34,35,35,36,36,37,37,38,38,39,39,40,40,41,41,42,42,44,44,45,45,46,46,48,48,49,49,50,50,51,51,52,52,54,54],"right_children":[2,4,6,8,10,12,14,16,18,20,22,-1,24,26,28,30,32,34,36,38,40,42,44,46,-1,48,50,52,54,56,58,60,62,64,66,68,70,72,74,76,78,80,82,-1,84,86,88,-1,90,92,94,96,98,-1,100,-1,-1,-1,-1,-1,-1,-1,-1,-1,-1,-1,-1,-1,-1,-1,-1,-1,-1,-1,-1,-1,-1,-1,-1,-1,-1,-1,-1,-1,-1,-1,-1,-1,-1,-1,-1,-1,-1,-1,-1,-1,-1,-1,-1,-1,-1],"split_conditions":[1E0,1E0,-1.8053609E0,1E0,1.6537653E0,-1.8742372E0,1.6537653E0,1E0,1E0,-1.8053609E0,1.8948439E0,4.8577788E-1,1.0108892E0,-1.8820534E0,1.8948439E0,1E0,1E0,1E0,1E0,-1.8742372E0,-1.8820534E0,-5.65589E-1,-9.099701E-1,5.2873206E-1,4.4745865E-1,-4.278366E-1,-1.5987322E0,-5.65589E-1,1.9752034E0,1E0,1E0,-1.7364846E0,-1.1414405E-1,1E0,1E0,-8.345553E-2,2.8765354E-1,-8.373797E-1,9.3052965E-1,8.1193525E-1,1.4318212E0,-1.1165987E0,-2.2120796E-1,3.968254E-1,-8.410939E-1,-5.159416E-1,9.3052965E-1,4.9373645E-1,5.364304E-1,-9.9809873E-1,-1.1588178E0,-1.1165987E0,-3.589604E-1,3.4972677E-1,-1.2543511E0,-1.0251932E-2,1.7253075E-2,1.8372992E-2,7.13327E-1,3.519725E-1,-3.564233E-3,5.4150915E0,-1.3789888E-2,3.1636585E-2,3.2461712E-1,4.036364E-2,5.699842E-1,8.331869E-2,1.55925015E-2,8.677162E-1,2.0204246E-1,1.1097017E-1,4.284528E-1,2.0285212E-1,3.8344476E-1,2.0279174E-1,4.519814E-1,5.8734592E-2,1.01315804E-1,1.5718263E-1,-1.3681581E-3,3.151533E-1,1.9657367E-1,-7.953729E-2,2.7839306E-1,2.0373617E-1,5.5859864E-1,1.4724491E-2,5.964603E-2,1.4052258E-1,3.0691457E-1,3.9621243E-1,1.1618476E-1,5.6249373E-2,9.210543E-2,1.888349E-1,1.20730465E-2,3.5773245E-1,1.9148785E-1,-6.540236E-2,2.3586394E-1],"split_indices":[59,71,0,67,1,0,1,43,8,0,1,0,1,1,1,83,18,6,38,0,1,0,0,1,0,0,0,0,1,69,3,0,1,21,38,0,1,1,1,0,0,0,0,0,0,1,1,0,0,1,1,0,0,0,0,0,0,0,0,0,0,0,0,0,0,0,0,0,0,0,0,0,0,0,0,0,0,0,0,0,0,0,0,0,0,0,0,0,0,0,0,0,0,0,0,0,0,0,0,0,0],"split_type":[0,0,0,0,0,0,0,0,0,0,0,0,0,0,0,0,0,0,0,0,0,0,0,0,0,0,0,0,0,0,0,0,0,0,0,0,0,0,0,0,0,0,0,0,0,0,0,0,0,0,0,0,0,0,0,0,0,0,0,0,0,0,0,0,0,0,0,0,0,0,0,0,0,0,0,0,0,0,0,0,0,0,0,0,0,0,0,0,0,0,0,0,0,0,0,0,0,0,0,0,0],"sum_hessian":[1.1518E5,1.12419E5,2.761E3,1.09633E5,2.786E3,2.3E1,2.738E3,1.04126E5,5.507E3,2.668E3,1.18E2,8E0,1.5E1,2.623E3,1.15E2,1.01341E5,2.785E3,5.433E3,7.4E1,2.4E1,2.644E3,1.01E2,1.7E1,1.2E1,3E0,4.3E1,2.58E3,9.9E1,1.6E1,9.8584E4,2.757E3,2.663E3,1.22E2,5.364E3,6.9E1,3.7E1,3.7E1,8E0,1.6E1,4.3E1,2.601E3,3.7E1,6.4E1,1E1,7E0,7E0,5E0,2E0,4.1E1,1.14E2,2.466E3,3.7E1,6.2E1,9E0,7E0,9.5947E4,2.637E3,2.69E3,6.7E1,4.9E1,2.614E3,2.3E1,9.9E1,5.325E3,3.9E1,3.4E1,3.5E1,1.3E1,2.4E1,2.5E1,1.2E1,1E0,7E0,1.3E1,3E0,3.9E1,4E0,2.349E3,2.52E2,1.6E1,2.1E1,8E0,5.6E1,1E0,6E0,5E0,2E0,4E0,1E0,3E1,1.1E1,1.1E1,1.03E2,3.65E2,2.101E3,1.5E1,2.2E1,5E0,5.7E1,1E0,6E0],"tree_param":{"num_deleted":"0","num_feature":"95","num_nodes":"101","size_leaf_vector":"1"}},{"base_weights":[5.071287E-4,-1.573807E-2,6.605011E-1,-2.8411908E-2,4.88554E-1,6.306624E-1,8.823987E0,-3.3273842E-2,1.603329E-1,4.4015053E-1,1.6167862E0,5.672819E-1,4.4391947E0,1.0359753E0,1.3843332E1,-3.7866842E-2,1.3992514E-1,7.8501806E-2,1.7490076E-1,1.4390326E0,4.031709E-1,1.2915277E0,8.94068E-1,8.376958E-1,-1.9813417E-2,1.3905995E1,1.3370802E0,-1.2038044E-2,1.3150326E0,1.662805E1,-1.2038044E-2,-4.2458113E-2,1.3149789E-1,7.223462E-2,1.517957E-1,1.1624841E-1,1.628407E-2,1.913919E-1,1.196675E-1,2.191051E0,1.103278E0,3.7149262E-1,9.460626E-1,2.711395E-1,1.8749526E0,1.1346769E0,1.4862688E-1,-1.9053429E0,2.2296316E1,2.1138551E0,2.0928282E-2,5.340384E-1,-1.2038044E-2,6.241538E0,-1.2038044E-2,-1.4061107E-2,3.4102444E-2,5.2237373E-2,8.229294E-3,3.1948093E-2,2.5856446E-3,4.9031503E-2,2.2234125E-2,2.805827E-2,4.2593002E-2,1.4850801E-3,3.3199046E-2,5.9895344E-2,3.7207227E-2,6.296432E-2,1.7802596E-2,6.8610585E-1,-6.0014687E-2,2.6441246E-1,8.638184E-1,6.786124E-1,1.0904118E-1,8.169606E-1,2.2745426E-1,7.330227E-1,-2.660185E-3,9.058345E-1,4.9884588E-1,1.3622801E-1,6.638787E-1,-2.287719E-1,6.439488E-2,1.3117379E1,2.0832889E-1,1.0567435E0,1.1550197E-1,2.008726E-2,-2.2594765E-2],"categories":[],"categories_nodes":[],"categories_segments":[],"categories_sizes":[],"default_left":[0,0,0,0,0,0,0,0,0,0,0,0,0,0,0,0,0,0,0,0,0,0,0,0,0,0,0,0,0,0,0,0,0,0,0,0,0,0,0,0,0,0,0,0,0,0,0,0,0,0,0,0,0,0,0,0,0,0,0,0,0,0,0,0,0,0,0,0,0,0,0,0,0,0,0,0,0,0,0,0,0,0,0,0,0,0,0,0,0,0,0,0,0],"id":5,"left_children":[1,3,5,7,9,11,13,15,17,19,21,23,25,27,29,31,33,35,37,39,41,43,-1,45,-1,47,49,-1,51,53,-1,55,57,59,61,63,65,67,69,71,73,75,77,79,81,83,85,-1,87,89,91,-1,-1,-1,-1,-1,-1,-1,-1,-1,-1,-1,-1,-1,-1,-1,-1,-1,-1,-1,-1,-1,-1,-1,-1,-1,-1,-1,-1,-1,-1,-1,-1,-1,-1,-1,-1,-1,-1,-1,-1,-1,-1],"loss_changes":[1.2349504E3,7.184938E2,6.684442E2,1.0063645E2,1.4979456E2,6.6322595E2,3.7656573E2,8.5050095E1,3.2693253E0,9.7084656E1,4.6263092E1,4.6485583E2,1.3029261E3,1.5542388E0,2.3263635E2,8.0989456E1,2.2083664E0,9.797833E-1,2.105774E0,2.1317078E1,4.3520355E1,5.4856384E1,0E0,3.8905762E2,0E0,2.0112097E3,3.5738144E1,0E0,2.5925446E0,3.4895593E2,0E0,6.985803E1,1.2189861E1,9.013598E-1,2.1123772E0,1.3870883E-1,1.6953094E-1,9.7566223E-1,2.9263225E0,6.882675E0,2.3868599E1,3.5758392E1,4.4680206E1,2.1310423E1,9.303528E0,9.7426904E2,3.469545E1,0E0,3.672766E3,5.222033E1,6.706362E-2,0E0,0E0,0E0,0E0,0E0,0E0,0E0,0E0,0E0,0E0,0E0,0E0,0E0,0E0,0E0,0E0,0E0,0E0,0E0,0E0,0E0,0E0,0E0,0E0,0E0,0E0,0E0,0E0,0E0,0E0,0E0,0E0,0E0,0E0,0E0,0E0,0E0,0E0,0E0,0E0,0E0,0E0],"parents":[2147483647,0,0,1,1,2,2,3,3,4,4,5,5,6,6,7,7,8,8,9,9,10,10,11,11,12,12,13,13,14,14,15,15,16,16,17,17,18,18,19,19,20,20,21,21,23,23,25,25,26,26,28,28,29,29,31,31,32,32,33,33,34,34,35,35,36,36,37,37,38,38,39,39,40,40,41,41,42,42,43,43,44,44,45,45,46,46,48,48,49,49,50,50],"right_children":[2,4,6,8,10,12,14,16,18,20,22,24,26,28,30,32,34,36,38,40,42,44,-1,46,-1,48,50,-1,52,54,-1,56,58,60,62,64,66,68,70,72,74,76,78,80,82,84,86,-1,88,90,92,-1,-1,-1,-1,-1,-1,-1,-1,-1,-1,-1,-1,-1,-1,-1,-1,-1,-1,-1,-1,-1,-1,-1,-1,-1,-1,-1,-1,-1,-1,-1,-1,-1,-1,-1,-1,-1,-1,-1,-1,-1,-1],"split_conditions":[1E0,1E0,1E0,1E0,1.6537653E0,1E0,2.0729402E-1,1E0,-1.1588178E0,-1.6676085E0,1.8948439E0,1E0,2.0729402E-1,1.9204932E-1,2.8765354E-1,1E0,-1.1588178E0,3.9867797E-1,1E0,-1.8053609E0,1.6384499E0,-5.65589E-1,8.94068E-1,6.090916E-1,-1.9813417E-2,8.1193525E-1,4.4837257E-1,-1.2038044E-2,1E0,1E0,-1.2038044E-2,1E0,1E0,4.6755418E-1,1.2940688E0,-1.4802558E0,1.362945E0,1.2940688E0,-1.1165987E0,1.2519678E0,1.2519678E0,-2.0427725E0,-4.3558213E-1,-1.4609798E0,-3.589604E-1,-3.378453E-2,-1.3232274E0,-1.9053429E0,9.496877E-1,8.8081145E-1,6.090916E-1,5.340384E-1,-1.2038044E-2,6.241538E0,-1.2038044E-2,-1.4061107E-2,3.4102444E-2,5.2237373E-2,8.229294E-3,3.1948093E-2,2.5856446E-3,4.9031503E-2,2.2234125E-2,2.805827E-2,4.2593002E-2,1.4850801E-3,3.3199046E-2,5.9895344E-2,3.7207227E-2,6.296432E-2,1.7802596E-2,6.8610585E-1,-6.0014687E-2,2.6441246E-1,8.638184E-1,6.786124E-1,1.0904118E-1,8.169606E-1,2.2745426E-1,7.330227E-1,-2.660185E-3,9.058345E-1,4.9884588E-1,1.3622801E-1,6.638787E-1,-2.287719E-1,6.439488E-2,1.3117379E1,2.0832889E-1,1.0567435E0,1.1550197E-1,2.008726E-2,-2.2594765E-2],"split_indices":[64,40,7,61,1,26,1,59,1,0,1,27,1,0,1,44,1,0,27,0,0,0,0,1,0,0,1,0,35,35,0,71,27,0,0,1,0,0,0,1,1,1,1,0,0,1,0,0,0,0,1,0,0,0,0,0,0,0,0,0,0,0,0,0,0,0,0,0,0,0,0,0,0,0,0,0,0,0,0,0,0,0,0,0,0,0,0,0,0,0,0,0,0],"split_type":[0,0,0,0,0,0,0,0,0,0,0,0,0,0,0,0,0,0,0,0,0,0,0,0,0,0,0,0,0,0,0,0,0,0,0,0,0,0,0,0,0,0,0,0,0,0,0,0,0,0,0,0,0,0,0,0,0,0,0,0,0,0,0,0,0,0,0,0,0,0,0,0,0,0,0,0,0,0,0,0,0,0,0,0,0,0,0,0,0,0,0,0,0],"sum_hessian":[1.1518E5,1.12414E5,2.766E3,1.09659E5,2.755E3,2.757E3,9E0,1.06906E5,2.753E3,2.643E3,1.12E2,2.713E3,4.4E1,4E0,5E0,1.04145E5,2.761E3,4.17E2,2.336E3,9.3E1,2.55E3,9.2E1,2E1,1.901E3,8.12E2,1E1,3.4E1,1E0,3E0,4E0,1E0,1.01397E5,2.748E3,4.13E2,2.348E3,2.59E2,1.58E2,1.797E3,5.39E2,2.7E1,6.6E1,2.411E3,1.39E2,3.4E1,5.8E1,1.328E3,5.73E2,3E0,7E0,2.1E1,1.3E1,2E0,1E0,3E0,1E0,9.8611E4,2.786E3,1.949E3,7.99E2,2.68E2,1.45E2,2.041E3,3.07E2,1.4E2,1.19E2,1.42E2,1.6E1,1.599E3,1.98E2,2.15E2,3.24E2,2.6E1,1E0,6E1,6E0,9E0,2.402E3,1.2E1,1.27E2,3E0,3.1E1,7E0,5.1E1,8.15E2,5.13E2,3.8E1,5.35E2,3E0,4E0,1.1E1,1E1,9E0,4E0],"tree_param":{"num_deleted":"0","num_feature":"95","num_nodes":"93","size_leaf_vector":"1"}},{"base_weights":[-3.7377E-4,-1.7020216E-2,6.804594E-1,-3.1052776E-2,5.4393035E-1,8.513474E-1,2.6306936E-1,-4.1171234E-2,3.6068794E-1,4.1918534E-1,8.757749E0,3.512665E-1,8.901313E-1,3.744062E-1,1.5190902E-1,-5.072156E-2,3.201053E-1,2.1574563E-1,3.8607976E-1,3.8539267E-1,4.341479E0,1.5366495E1,3.9134915E0,5.6557864E-1,1.9804258E-3,1.3327159E0,8.4784997E-1,4.005415E-1,2.7143877E-2,9.018818E-2,2.0358998E-1,-6.808184E-2,9.553249E-2,1.743212E-1,3.4604356E-1,4.6391112E-1,1.5947329E-1,9.8186797E-1,3.7976635E-1,3.5127488E-1,3.3896985E0,1.2784477E0,6.2192526E0,-9.509722E-1,2.2244688E1,5.0167828E0,1.756876E0,3.1385612E-1,7.420468E-1,-2.9637508E-2,3.8386486E-2,1.4397204E0,-3.7352195E-1,7.07966E-1,1.0314724E0,2.7442765E-1,5.205325E-1,1.5201993E-1,-5.7614822E-2,2.0185237E-1,-2.4883796E-2,6.825384E-1,1.1446653E-1,-2.268875E-2,5.297384E-2,2.6145702E-2,2.176224E-1,7.415586E-2,1.6222369E-2,1.1251946E-1,6.2373992E-2,3.0497012E-1,9.340413E-2,1.3926664E-1,3.4090206E-2,4.060236E-1,1.6901281E-1,1.2314359E-1,8.458515E-2,1.0028285E-1,1.7789073E0,3.212606E-1,2.0336113E0,6.310315E-1,-1.454693E-1,2.1814065E0,-1.8671865E-2,-1.3248903E0,1.8760611E-1,-2.3938037E-1,8.079903E0,-3.7853384E-1,1.6558417E0,7.2253615E-1,5.3218756E-2,-2.8726062E-2,1.7554682E-1,7.267608E-2,2.7738312E-1,5.024987E-3,-1.982867E-2,4.506604E-2,5.180454E-3,-1.7998956E-2,4.6843866E-1,-6.6489935E-2,-1.313527E-1,2.8473E-1,1.2814151E-1,3.746994E-1,1.9968663E-1,1.4899504E-1,3.2494962E-2,3.0886048E-1,1.1309337E-1,1.21875495E-1,6.6410895E-3,-4.5059606E-2,3.581008E-4,3.660523E-2,9.8125786E-2,9.802399E-3,-9.690478E-3,9.7333305E-2,3.9360213E-1,7.107657E-2,-3.568534E-3],"categories":[],"categories_nodes":[],"categories_segments":[],"categories_sizes":[],"default_left":[0,0,0,0,0,0,0,0,0,0,0,0,0,0,0,0,0,0,0,0,0,0,0,0,0,0,0,0,0,0,0,0,0,0,0,0,0,0,0,0,0,0,0,0,0,0,0,0,0,0,0,0,0,0,0,0,0,0,0,0,0,0,0,0,0,0,0,0,0,0,0,0,0,0,0,0,0,0,0,0,0,0,0,0,0,0,0,0,0,0,0,0,0,0,0,0,0,0,0,0,0,0,0,0,0,0,0,0,0,0,0,0,0,0,0,0,0,0,0,0,0,0,0,0,0,0,0],"id":6,"left_children":[1,3,5,7,9,11,13,15,17,19,21,23,25,27,29,31,33,35,37,39,41,43,45,47,49,51,53,55,57,59,61,63,65,67,69,71,73,75,77,79,81,83,85,87,89,91,93,95,97,99,101,103,105,107,109,111,113,115,117,119,121,123,125,-1,-1,-1,-1,-1,-1,-1,-1,-1,-1,-1,-1,-1,-1,-1,-1,-1,-1,-1,-1,-1,-1,-1,-1,-1,-1,-1,-1,-1,-1,-1,-1,-1,-1,-1,-1,-1,-1,-1,-1,-1,-1,-1,-1,-1,-1,-1,-1,-1,-1,-1,-1,-1,-1,-1,-1,-1,-1,-1,-1,-1,-1,-1,-1],"loss_changes":[1.30541E3,8.8504126E2,1.9585376E2,4.3480548E2,2.8079214E3,3.750769E1,9.844116E0,3.6895422E2,1.0081848E1,3.5672784E2,1.2524568E3,1.0628466E1,3.2722046E1,3.6103706E0,1.2639351E0,2.6451056E2,1.0353638E1,5.70747E0,8.462738E0,2.7371524E2,1.2433765E2,1.929144E3,5.06705E1,3.6761532E0,6.444732E-2,2.901947E1,4.175415E1,5.4713173E0,3.157042E-1,2.3821654E0,9.227317E0,1.7196866E2,5.8284798E1,3.6490526E0,9.290375E0,6.091465E0,4.6828947E0,2.9692383E0,6.8719177E0,2.4959097E2,2.2849677E2,1.5567383E1,9.29754E1,3.5536674E1,1.3178643E3,5.7463043E1,9.864296E0,4.278859E0,4.429453E0,5.1843006E-2,5.8811136E-2,2.6932678E1,6.5517426E-4,6.3384064E1,5.591046E1,6.701399E0,1.3422054E1,3.8725123E-1,9.818418E-2,8.9990354E-1,4.033548E-2,7.2382307E0,2.865446E0,0E0,0E0,0E0,0E0,0E0,0E0,0E0,0E0,0E0,0E0,0E0,0E0,0E0,0E0,0E0,0E0,0E0,0E0,0E0,0E0,0E0,0E0,0E0,0E0,0E0,0E0,0E0,0E0,0E0,0E0,0E0,0E0,0E0,0E0,0E0,0E0,0E0,0E0,0E0,0E0,0E0,0E0,0E0,0E0,0E0,0E0,0E0,0E0,0E0,0E0,0E0,0E0,0E0,0E0,0E0,0E0,0E0,0E0,0E0,0E0,0E0,0E0,0E0,0E0],"parents":[2147483647,0,0,1,1,2,2,3,3,4,4,5,5,6,6,7,7,8,8,9,9,10,10,11,11,12,12,13,13,14,14,15,15,16,16,17,17,18,18,19,19,20,20,21,21,22,22,23,23,24,24,25,25,26,26,27,27,28,28,29,29,30,30,31,31,32,32,33,33,34,34,35,35,36,36,37,37,38,38,39,39,40,40,41,41,42,42,43,43,44,44,45,45,46,46,47,47,48,48,49,49,50,50,51,51,52,52,53,53,54,54,55,55,56,56,57,57,58,58,59,59,60,60,61,61,62,62],"right_children":[2,4,6,8,10,12,14,16,18,20,22,24,26,28,30,32,34,36,38,40,42,44,46,48,50,52,54,56,58,60,62,64,66,68,70,72,74,76,78,80,82,84,86,88,90,92,94,96,98,100,102,104,106,108,110,112,114,116,118,120,122,124,126,-1,-1,-1,-1,-1,-1,-1,-1,-1,-1,-1,-1,-1,-1,-1,-1,-1,-1,-1,-1,-1,-1,-1,-1,-1,-1,-1,-1,-1,-1,-1,-1,-1,-1,-1,-1,-1,-1,-1,-1,-1,-1,-1,-1,-1,-1,-1,-1,-1,-1,-1,-1,-1,-1,-1,-1,-1,-1,-1,-1,-1,-1,-1,-1],"split_conditions":[1E0,1E0,1E0,1E0,1E0,-1.1588178E0,-4.9671283E-1,1E0,-1.1588178E0,1E0,1E0,6.7418283E-1,-7.570202E-1,1.8144844E0,-8.373797E-1,1E0,-1.1588178E0,-7.722177E-1,-1.8053609E0,1E0,-2.9008418E-1,1.269345E-1,2.8765354E-1,1E0,-1.3998963E0,1.2940688E0,4.4837257E-1,-1.3232274E0,1.8948439E0,4.6755418E-1,-2.748631E-1,1E0,1E0,3.9867797E-1,1.1716082E0,-1.5606153E0,-1.8820534E0,5.2873206E-1,1.0108892E0,1E0,-1.4579316E-2,2.8765354E-1,-8.345553E-2,-1.4579316E-2,-8.345553E-2,-2.9008418E-1,3.6801305E-1,-1.3195368E0,-1.5606153E0,9.496877E-1,1E0,-7.722177E-1,1.362945E0,-3.378453E-2,1.0108892E0,-5.159416E-1,-1.185475E0,-1.2543511E0,-1.1165987E0,-1.6409749E0,5.364304E-1,-4.3558213E-1,1.1563164E0,-2.268875E-2,5.297384E-2,2.6145702E-2,2.176224E-1,7.415586E-2,1.6222369E-2,1.1251946E-1,6.2373992E-2,3.0497012E-1,9.340413E-2,1.3926664E-1,3.4090206E-2,4.060236E-1,1.6901281E-1,1.2314359E-1,8.458515E-2,1.0028285E-1,1.7789073E0,3.212606E-1,2.0336113E0,6.310315E-1,-1.454693E-1,2.1814065E0,-1.8671865E-2,-1.3248903E0,1.8760611E-1,-2.3938037E-1,8.079903E0,-3.7853384E-1,1.6558417E0,7.2253615E-1,5.3218756E-2,-2.8726062E-2,1.7554682E-1,7.267608E-2,2.7738312E-1,5.024987E-3,-1.982867E-2,4.506604E-2,5.180454E-3,-1.7998956E-2,4.6843866E-1,-6.6489935E-2,-1.313527E-1,2.8473E-1,1.2814151E-1,3.746994E-1,1.9968663E-1,1.4899504E-1,3.2494962E-2,3.0886048E-1,1.1309337E-1,1.21875495E-1,6.6410895E-3,-4.5059606E-2,3.581008E-4,3.660523E-2,9.8125786E-2,9.802399E-3,-9.690478E-3,9.7333305E-2,3.9360213E-1,7.107657E-2,-3.568534E-3],"split_indices":[44,45,27,59,8,1,0,61,1,21,35,0,1,1,1,49,1,0,0,6,0,1,1,9,1,0,1,0,1,0,1,71,8,0,1,1,1,1,1,7,0,1,0,0,0,0,1,1,1,0,5,0,0,1,1,1,0,0,0,1,0,1,0,0,0,0,0,0,0,0,0,0,0,0,0,0,0,0,0,0,0,0,0,0,0,0,0,0,0,0,0,0,0,0,0,0,0,0,0,0,0,0,0,0,0,0,0,0,0,0,0,0,0,0,0,0,0,0,0,0,0,0,0,0,0,0,0],"split_type":[0,0,0,0,0,0,0,0,0,0,0,0,0,0,0,0,0,0,0,0,0,0,0,0,0,0,0,0,0,0,0,0,0,0,0,0,0,0,0,0,0,0,0,0,0,0,0,0,0,0,0,0,0,0,0,0,0,0,0,0,0,0,0,0,0,0,0,0,0,0,0,0,0,0,0,0,0,0,0,0,0,0,0,0,0,0,0,0,0,0,0,0,0,0,0,0,0,0,0,0,0,0,0,0,0,0,0,0,0,0,0,0,0,0,0,0,0,0,0,0,0,0,0,0,0,0,0],"sum_hessian":[1.1518E5,1.12432E5,2.748E3,1.09689E5,2.743E3,1.949E3,7.99E2,1.06928E5,2.761E3,2.703E3,4E1,1.41E2,1.808E3,3.98E2,4.01E2,1.04175E5,2.753E3,4.13E2,2.348E3,2.681E3,2.2E1,1.6E1,2.4E1,8.7E1,5.4E1,1.55E2,1.653E3,3.7E2,2.8E1,1.84E2,2.17E2,9.3122E4,1.1053E4,4.17E2,2.336E3,7.5E1,3.38E2,2.3E1,2.325E3,2.652E3,2.9E1,9E0,1.3E1,5E0,1.1E1,1.5E1,9E0,3.7E1,5E1,2.9E1,2.5E1,1.46E2,9E0,9.41E2,7.12E2,1.82E2,1.88E2,1.1E1,1.7E1,9.3E1,9.1E1,3.3E1,1.84E2,9.0336E4,2.786E3,1.0909E4,1.44E2,2.59E2,1.58E2,1.929E3,4.07E2,1.5E1,6E1,4.3E1,2.95E2,1.1E1,1.2E1,1.767E3,5.58E2,2.645E3,7E0,1.8E1,1.1E1,6E0,3E0,1.1E1,2E0,1E0,4E0,2E0,9E0,1E0,1.4E1,6E0,3E0,1.5E1,2.2E1,1.4E1,3.6E1,1.3E1,1.6E1,3E0,2.2E1,1.1E1,1.35E2,4E0,5E0,5.05E2,4.36E2,4.45E2,2.67E2,7.7E1,1.05E2,4E1,1.48E2,3E0,8E0,6E0,1.1E1,5.8E1,3.5E1,1E1,8.1E1,2.2E1,1.1E1,9.3E1,9.1E1],"tree_param":{"num_deleted":"0","num_feature":"95","num_nodes":"127","size_leaf_vector":"1"}},{"base_weights":[9.802927E-4,-4.299867E-3,2.1399818E-1,-8.000359E-3,1.431914E-1,3.9181884E-2,3.9985235E0,-1.1222779E-2,1.1689058E-1,1.0122163E-1,1.0706133E0,2.1299317E-2,6.8265855E-1,2.050598E1,-3.2514664E-3,-1.06033E-2,-3.4599245E-2,3.322753E-2,3.4260137E0,7.3639035E-2,1.0409902E0,3.4295676E0,6.1323815E-3,4.1793326E-1,1.3495466E-2,1.2378145E0,-3.2833538E-3,3.9868333E0,2.8516376E1,4.073544E-3,-3.1107287E-3,-1.1097416E-2,-1.7539406E-3,-2.9644836E-2,-2.2175148E-1,6.294243E-1,9.016516E-3,5.283995E-1,1.8392887E1,5.3986408E-2,8.151545E-1,3.6630625E-1,4.2305365E0,-3.2596476E-3,1.8175833E1,-1.0110886E-2,3.370531E-2,9.147109E-1,-5.0602616E-3,5.8912365E-3,3.7780026E-1,-3.2699679E-3,3.5576344E0,4.8148527E0,-3.955982E-1,2.776382E0,3.686501E1,-9.429901E-3,4.3231804E-2,-3.3368634E-3,-3.0632967E-3,-3.3419924E-3,2.3591558E-3,-7.5415606E-3,-3.7522487E-2,-3.110982E-2,-2.380598E-1,5.512251E0,8.463812E-2,-1.1060743E-3,1.8493615E-1,2.6223657E0,-2.3551106E-2,1.1969849E1,1.21040754E-1,2.2912659E-3,1.1272414E-1,8.2420605E-1,-1.06311694E-1,6.452476E-1,-3.2931187E-3,-3.068446E-3,3.3053417E0,-3.3476782E-1,6.473131E0,-4.3848604E-3,8.68674E-5,1.05728865E-1,-3.9091455E-3,5.01018E-2,1.7531224E0,-3.939461E-5,-2.9939485E-3,1.0044178E-4,6.032586E-2,4.6211898E-1,-2.8465586E-3,1.1988466E0,1.8530165E-1,-2.5459984E-3,1.927214E0,3.9951723E-2,1.3482392E0,1.4476817E1,6.0567224E-1,-3.2833896E-3,1.418296E-4,1.945065E-2,-6.475615E-3],"categories":[],"categories_nodes":[],"categories_segments":[],"categories_sizes":[],"default_left":[0,0,0,0,0,0,0,0,0,0,0,0,0,0,0,0,0,0,0,0,0,0,0,0,0,0,0,0,0,0,0,0,0,0,0,0,0,0,0,0,0,0,0,0,0,0,0,0,0,0,0,0,0,0,0,0,0,0,0,0,0,0,0,0,0,0,0,0,0,0,0,0,0,0,0,0,0,0,0,0,0,0,0,0,0,0,0,0,0,0,0,0,0,0,0,0,0,0,0,0,0,0,0,0,0,0,0,0,0],"id":7,"left_children":[1,3,5,7,9,11,13,15,17,19,21,23,25,27,29,31,33,35,37,39,41,43,45,47,49,51,-1,53,55,57,-1,59,61,63,65,67,69,71,73,75,77,79,81,-1,83,85,87,89,91,93,95,-1,97,99,-1,101,103,105,107,-1,-1,-1,-1,-1,-1,-1,-1,-1,-1,-1,-1,-1,-1,-1,-1,-1,-1,-1,-1,-1,-1,-1,-1,-1,-1,-1,-1,-1,-1,-1,-1,-1,-1,-1,-1,-1,-1,-1,-1,-1,-1,-1,-1,-1,-1,-1,-1,-1,-1],"loss_changes":[1.2955287E2,6.1345795E1,1.8430516E3,4.4128456E1,1.06970695E2,3.064015E1,8.1253394E3,1.547514E0,7.634422E2,6.817401E1,2.987953E2,8.0204E0,2.7737713E1,3.0621074E3,5.25591E-3,4.553051E-1,2.5516508E0,3.8837635E1,2.9393203E3,3.7247604E1,1.5984549E2,1.8773383E3,3.751437E-2,1.0511313E1,7.045309E0,1.1591048E2,0E0,4.5886642E1,3.3359492E3,2.6846241E-2,0E0,2.1123886E-3,4.9731088E-1,1.1532247E0,4.710209E0,6.418997E2,1.9964954E1,2.8978064E2,4.239707E3,3.719075E1,1.5011763E2,4.2439564E1,3.742943E2,0E0,4.8339233E2,2.4876674E-3,4.6636304E-1,8.378964E1,6.7764136E-4,2.7038085E0,2.3428162E1,0E0,1.5580978E1,6.214801E1,0E0,2.2103355E1,4.6657773E3,5.751692E-4,1.9603278E-2,0E0,0E0,0E0,0E0,0E0,0E0,0E0,0E0,0E0,0E0,0E0,0E0,0E0,0E0,0E0,0E0,0E0,0E0,0E0,0E0,0E0,0E0,0E0,0E0,0E0,0E0,0E0,0E0,0E0,0E0,0E0,0E0,0E0,0E0,0E0,0E0,0E0,0E0,0E0,0E0,0E0,0E0,0E0,0E0,0E0,0E0,0E0,0E0,0E0,0E0],"parents":[2147483647,0,0,1,1,2,2,3,3,4,4,5,5,6,6,7,7,8,8,9,9,10,10,11,11,12,12,13,13,14,14,15,15,16,16,17,17,18,18,19,19,20,20,21,21,22,22,23,23,24,24,25,25,27,27,28,28,29,29,31,31,32,32,33,33,34,34,35,35,36,36,37,37,38,38,39,39,40,40,41,41,42,42,44,44,45,45,46,46,47,47,48,48,49,49,50,50,52,52,53,53,55,55,56,56,57,57,58,58],"right_children":[2,4,6,8,10,12,14,16,18,20,22,24,26,28,30,32,34,36,38,40,42,44,46,48,50,52,-1,54,56,58,-1,60,62,64,66,68,70,72,74,76,78,80,82,-1,84,86,88,90,92,94,96,-1,98,100,-1,102,104,106,108,-1,-1,-1,-1,-1,-1,-1,-1,-1,-1,-1,-1,-1,-1,-1,-1,-1,-1,-1,-1,-1,-1,-1,-1,-1,-1,-1,-1,-1,-1,-1,-1,-1,-1,-1,-1,-1,-1,-1,-1,-1,-1,-1,-1,-1,-1,-1,-1,-1,-1],"split_conditions":[1E0,1E0,1E0,1E0,1E0,1E0,-1.1414405E-1,1E0,1E0,1E0,1.269345E-1,-1.7364846E0,-1.1414405E-1,-2.748631E-1,6.090916E-1,1E0,1E0,-1.6676085E0,4.6574987E-2,1E0,4.6574987E-2,4.6574987E-2,7.698106E-1,-1.1414405E-1,1E0,-2.748631E-1,-3.2833538E-3,-1.3921037E0,-1.6676085E0,4.4837257E-1,-3.1107287E-3,1E0,1E0,1E0,4.6574987E-2,-1.2391773E0,1E0,-5.9630114E-1,1.269345E-1,1.2940688E0,8.8081145E-1,-5.159416E-1,1.4318212E0,-3.2596476E-3,-1.6676085E0,5.2873206E-1,8.5017014E-1,-2.748631E-1,8.5017014E-1,1E0,2.0729402E-1,-3.2699679E-3,-7.722177E-1,-3.552226E-1,-3.955982E-1,-1.7364846E0,-1.3921037E0,3.6801305E-1,-1.2543511E0,-3.3368634E-3,-3.0632967E-3,-3.3419924E-3,2.3591558E-3,-7.5415606E-3,-3.7522487E-2,-3.110982E-2,-2.380598E-1,5.512251E0,8.463812E-2,-1.1060743E-3,1.8493615E-1,2.6223657E0,-2.3551106E-2,1.1969849E1,1.21040754E-1,2.2912659E-3,1.1272414E-1,8.2420605E-1,-1.06311694E-1,6.452476E-1,-3.2931187E-3,-3.068446E-3,3.3053417E0,-3.3476782E-1,6.473131E0,-4.3848604E-3,8.68674E-5,1.05728865E-1,-3.9091455E-3,5.01018E-2,1.7531224E0,-3.939461E-5,-2.9939485E-3,1.0044178E-4,6.032586E-2,4.6211898E-1,-2.8465586E-3,1.1988466E0,1.8530165E-1,-2.5459984E-3,1.927214E0,3.9951723E-2,1.3482392E0,1.4476817E1,6.0567224E-1,-3.2833896E-3,1.418296E-4,1.945065E-2,-6.475615E-3],"split_indices":[43,84,18,83,18,19,1,50,3,3,1,0,1,1,1,67,3,0,1,12,1,1,1,1,26,1,0,0,0,1,0,76,38,18,1,1,24,1,1,0,0,1,0,0,0,1,1,1,1,29,1,0,0,1,0,0,0,1,0,0,0,0,0,0,0,0,0,0,0,0,0,0,0,0,0,0,0,0,0,0,0,0,0,0,0,0,0,0,0,0,0,0,0,0,0,0,0,0,0,0,0,0,0,0,0,0,0,0,0],"split_type":[0,0,0,0,0,0,0,0,0,0,0,0,0,0,0,0,0,0,0,0,0,0,0,0,0,0,0,0,0,0,0,0,0,0,0,0,0,0,0,0,0,0,0,0,0,0,0,0,0,0,0,0,0,0,0,0,0,0,0,0,0,0,0,0,0,0,0,0,0,0,0,0,0,0,0,0,0,0,0,0,0,0,0,0,0,0,0,0,0,0,0,0,0,0,0,0,0,0,0,0,0,0,0,0,0,0,0,0,0],"sum_hessian":[1.1518E5,1.12395E5,2.785E3,1.09645E5,2.75E3,2.663E3,1.22E2,1.06888E5,2.757E3,2.632E3,1.18E2,2.592E3,7.1E1,2.3E1,9.9E1,1.0413E5,2.758E3,2.69E3,6.7E1,2.558E3,7.4E1,3.6E1,8.2E1,4.9E1,2.543E3,3.9E1,3.2E1,8E0,1.5E1,4.9E1,5E1,9.8623E4,5.507E3,2.688E3,7E1,1.04E2,2.586E3,5.7E1,1E1,2.493E3,6.5E1,6.2E1,1.2E1,3E1,6E0,5.2E1,3E1,2.2E1,2.7E1,2.492E3,5.1E1,2.6E1,1.3E1,7E0,1E0,4E0,1.1E1,3.7E1,1.2E1,9.5858E4,2.765E3,2.787E3,2.72E3,2.568E3,1.2E2,5.9E1,1.1E1,1E0,1.03E2,2.534E3,5.2E1,3E0,5.4E1,4E0,6E0,2.18E3,3.13E2,2.4E1,4.1E1,1E1,5.2E1,8E0,4E0,1E0,5E0,3.6E1,1.6E1,3E0,2.7E1,2E1,2E0,1.4E1,1.3E1,2.424E3,6.8E1,1.2E1,3.9E1,1.1E1,2E0,2E0,5E0,2E0,2E0,8E0,3E0,3.2E1,5E0,9E0,3E0],"tree_param":{"num_deleted":"0","num_feature":"95","num_nodes":"109","size_leaf_vector":"1"}},{"base_weights":[2.0563377E-4,-5.4630963E-3,2.3093642E-1,-9.991846E-3,1.7268918E-1,9.7334117E-1,2.2434692E-1,-1.5698269E-2,9.788808E-2,1.5988506E-1,4.584161E-1,3.404237E-1,7.4948E-1,2.1451512E-1,4.4481495E-1,-1.9337555E-2,1.1668803E-1,1.5482235E-1,-4.053802E-2,4.8720667E-1,1.4761515E-1,3.8818368E-1,8.3093214E-1,5.119501E-1,3.4678045E-1,6.7715603E-1,2.1034323E-1,3.9370823E-1,7.192772E-1,-2.2204021E-2,8.31316E-2,7.3814206E-3,2.4831605E0,3.5465488E-1,7.305942E-2,-1.4251802E-2,-6.577978E-2,6.3616246E-1,2.531902E-1,7.802006E-1,1.4160588E-1,2.9423973E-1,6.980677E-1,9.541261E-1,5.010379E-1,2.756998E-1,8.7417394E-2,1.0035181E0,2.298957E-1,2.1320137E-1,-7.104157E-2,2.0785958E-1,4.9955806E-1,9.366626E-1,4.2197207E-1,-7.355077E-3,1.7486105E-2,1.1802392E-2,6.95204E-1,-4.945303E-3,2.6003337E-1,3.8582523E0,-9.694291E-3,3.9430556E-1,7.660585E-2,3.2119736E-2,3.122184E-3,-1.1012326E-2,2.9498762E-3,-2.4968388E-2,1.1573848E-2,1.7173348E-1,3.591239E-1,2.0960925E-2,2.8644696E-1,3.301119E-1,1.418724E-1,3.6065537E-2,6.7593984E-2,5.089764E-2,1.844906E-1,2.2031386E-1,6.335872E-2,3.162899E-1,1.4706133E-1,-1.399259E-1,2.2200523E-1,1.1190615E-2,5.0699122E-2,1.6550173E-1,4.316179E-1,2.9224008E-1,-1.3118269E-2,6.253035E-2,1.8789606E-1,2.8993934E-1,3.4566913E-2,1.3699551E-1,3.0547923E-1,8.32991E-2,3.2558456E-1,2.2444594E-1,3.4189925E-3],"categories":[],"categories_nodes":[],"categories_segments":[],"categories_sizes":[],"default_left":[0,0,0,0,0,0,0,0,0,0,0,0,0,0,0,0,0,0,0,0,0,0,0,0,0,0,0,0,0,0,0,0,0,0,0,0,0,0,0,0,0,0,0,0,0,0,0,0,0,0,0,0,0,0,0,0,0,0,0,0,0,0,0,0,0,0,0,0,0,0,0,0,0,0,0,0,0,0,0,0,0,0,0,0,0,0,0,0,0,0,0,0,0,0,0,0,0,0,0,0,0,0,0],"id":8,"left_children":[1,3,5,7,9,11,13,15,17,19,21,-1,23,25,27,29,31,33,35,37,39,41,43,45,-1,47,49,51,53,55,57,59,61,63,65,67,69,71,73,75,77,79,81,83,85,-1,87,89,91,93,-1,95,97,99,101,-1,-1,-1,-1,-1,-1,-1,-1,-1,-1,-1,-1,-1,-1,-1,-1,-1,-1,-1,-1,-1,-1,-1,-1,-1,-1,-1,-1,-1,-1,-1,-1,-1,-1,-1,-1,-1,-1,-1,-1,-1,-1,-1,-1,-1,-1,-1,-1],"loss_changes":[1.5065233E2,9.070297E1,1.3293533E1,6.749316E1,1.0122894E1,1.6702652E-2,5.8416443E0,5.016977E1,4.3415867E1,1.0647339E1,2.7908058E0,0E0,6.633067E-1,4.9221115E0,1.3439312E0,2.9768467E1,7.206392E2,6.374479E1,1.0646603E0,3.1853085E0,9.674274E0,2.763998E0,2.5348377E-1,1.6477203E0,0E0,3.1265783E0,3.375885E0,1.8633671E0,7.0346165E-1,1.8354794E1,2.6974307E2,5.4653336E1,3.2113052E3,1.07639145E2,5.9026985E0,4.2654705E-1,1.4945102E0,1.3876724E0,4.9496098E0,1.8409023E0,4.5399323E0,3.0922022E0,2.5152302E-1,4.0849686E-2,1.9635763E0,0E0,1.8226426E-2,1.7627039E0,2.2826452E0,4.9620132E0,0E0,2.559073E0,9.3712234E-1,5.801158E-1,1.1967708E0,0E0,0E0,0E0,0E0,0E0,0E0,0E0,0E0,0E0,0E0,0E0,0E0,0E0,0E0,0E0,0E0,0E0,0E0,0E0,0E0,0E0,0E0,0E0,0E0,0E0,0E0,0E0,0E0,0E0,0E0,0E0,0E0,0E0,0E0,0E0,0E0,0E0,0E0,0E0,0E0,0E0,0E0,0E0,0E0,0E0,0E0,0E0,0E0],"parents":[2147483647,0,0,1,1,2,2,3,3,4,4,5,5,6,6,7,7,8,8,9,9,10,10,12,12,13,13,14,14,15,15,16,16,17,17,18,18,19,19,20,20,21,21,22,22,23,23,25,25,26,26,27,27,28,28,29,29,30,30,31,31,32,32,33,33,34,34,35,35,36,36,37,37,38,38,39,39,40,40,41,41,42,42,43,43,44,44,46,46,47,47,48,48,49,49,51,51,52,52,53,53,54,54],"right_children":[2,4,6,8,10,12,14,16,18,20,22,-1,24,26,28,30,32,34,36,38,40,42,44,46,-1,48,50,52,54,56,58,60,62,64,66,68,70,72,74,76,78,80,82,84,86,-1,88,90,92,94,-1,96,98,100,102,-1,-1,-1,-1,-1,-1,-1,-1,-1,-1,-1,-1,-1,-1,-1,-1,-1,-1,-1,-1,-1,-1,-1,-1,-1,-1,-1,-1,-1,-1,-1,-1,-1,-1,-1,-1,-1,-1,-1,-1,-1,-1,-1,-1,-1,-1,-1,-1],"split_conditions":[1E0,1E0,-1.8053609E0,1E0,1.6537653E0,5.2873206E-1,1.6537653E0,1E0,1E0,-1.6676085E0,1.8948439E0,3.404237E-1,1.0108892E0,-1.962413E0,1.8948439E0,1E0,1E0,1E0,-4.9671283E-1,6.090916E-1,-1.962413E0,6.053066E-1,1.9752034E0,-1.8742372E0,3.4678045E-1,1.2317312E-1,2.051707E0,-5.65589E-1,-9.788463E-1,1E0,1E0,1E0,-1.1414405E-1,1E0,6.7418283E-1,1E0,1.707326E0,5.2873206E-1,1.2519678E0,1.2317312E-1,1E0,1E0,1.8144844E0,-7.722177E-1,-1.2543511E0,2.756998E-1,9.3052965E-1,-1.5233174E-1,-2.0427725E0,1.9139547E0,-7.104157E-2,-1.4609798E0,1.1563164E0,-1.2543511E0,1.9752034E0,-7.355077E-3,1.7486105E-2,1.1802392E-2,6.95204E-1,-4.945303E-3,2.6003337E-1,3.8582523E0,-9.694291E-3,3.9430556E-1,7.660585E-2,3.2119736E-2,3.122184E-3,-1.1012326E-2,2.9498762E-3,-2.4968388E-2,1.1573848E-2,1.7173348E-1,3.591239E-1,2.0960925E-2,2.8644696E-1,3.301119E-1,1.418724E-1,3.6065537E-2,6.7593984E-2,5.089764E-2,1.844906E-1,2.2031386E-1,6.335872E-2,3.162899E-1,1.4706133E-1,-1.399259E-1,2.2200523E-1,1.1190615E-2,5.0699122E-2,1.6550173E-1,4.316179E-1,2.9224008E-1,-1.3118269E-2,6.253035E-2,1.8789606E-1,2.8993934E-1,3.4566913E-2,1.3699551E-1,3.0547923E-1,8.32991E-2,3.2558456E-1,2.2444594E-1,3.4189925E-3],"split_indices":[59,71,0,67,1,1,1,43,27,0,1,0,1,1,1,83,18,37,0,1,1,0,1,0,0,0,0,0,0,61,24,19,1,35,0,38,0,1,1,0,35,11,1,0,0,0,1,0,1,0,0,0,0,0,1,0,0,0,0,0,0,0,0,0,0,0,0,0,0,0,0,0,0,0,0,0,0,0,0,0,0,0,0,0,0,0,0,0,0,0,0,0,0,0,0,0,0,0,0,0,0,0,0],"split_type":[0,0,0,0,0,0,0,0,0,0,0,0,0,0,0,0,0,0,0,0,0,0,0,0,0,0,0,0,0,0,0,0,0,0,0,0,0,0,0,0,0,0,0,0,0,0,0,0,0,0,0,0,0,0,0,0,0,0,0,0,0,0,0,0,0,0,0,0,0,0,0,0,0,0,0,0,0,0,0,0,0,0,0,0,0,0,0,0,0,0,0,0,0,0,0,0,0,0,0,0,0,0,0],"sum_hessian":[1.1518E5,1.12419E5,2.761E3,1.09633E5,2.786E3,2.3E1,2.738E3,1.04126E5,5.507E3,2.668E3,1.18E2,1.1E1,1.2E1,2.623E3,1.15E2,1.01341E5,2.785E3,3.902E3,1.605E3,9.5E1,2.573E3,1.01E2,1.7E1,9E0,3E0,2.2E1,2.601E3,9.9E1,1.6E1,9.8584E4,2.757E3,2.663E3,1.22E2,1.132E3,2.77E3,7.87E2,8.18E2,5.7E1,3.8E1,2.3E1,2.55E3,7.9E1,2.2E1,1.1E1,6E0,4E0,5E0,1.2E1,1E1,2.585E3,1.6E1,3.7E1,6.2E1,8E0,8E0,9.5831E4,2.753E3,2.705E3,5.2E1,2.592E3,7.1E1,2.3E1,9.9E1,1.05E2,1.027E3,1.795E3,9.75E2,4.07E2,3.8E2,7.01E2,1.17E2,5.3E1,4E0,3.1E1,7E0,1E1,1.3E1,2.033E3,5.17E2,5.8E1,2.1E1,2E1,2E0,8E0,3E0,1E0,5E0,4E0,1E0,7E0,5E0,2E0,8E0,2.557E3,2.8E1,3E0,3.4E1,5.9E1,3E0,2E0,6E0,4E0,4E0],"tree_param":{"num_deleted":"0","num_feature":"95","num_nodes":"103","size_leaf_vector":"1"}},{"base_weights":[5.895637E-4,-1.0953623E-2,4.6955478E-1,-1.9884055E-2,3.443882E-1,4.462519E-1,6.8495336E0,-2.3289947E-2,1.1233587E-1,3.1518513E-1,1.370034E0,3.9732423E-1,3.3872163E0,8.2717514E-1,1.0726577E1,-2.679288E-2,1.096921E-1,5.5203263E-2,1.2250664E-1,1.0259857E0,2.89246E-1,1.1257426E0,2.8697832E0,3.340257E-1,2.560756E0,1.0772412E1,9.693773E-1,-1.0232337E-2,1.0510229E0,1.2885535E1,-1.0232337E-2,-3.019132E-2,9.79859E-2,6.757693E-2,2.8845634E0,8.0222346E-2,8.042899E-3,1.2429942E-1,-1.2946667E-1,6.286763E-1,8.7370473E-1,2.7559662E-1,1.0906901E0,6.536459E-1,2.1287332E0,3.16378E0,3.3571657E-2,2.947943E-1,3.2432983E0,6.9024143E0,1.7325643E0,-7.3067536E0,1.8465445E1,1.5329825E0,1.4470694E-2,5.472888E-1,1.8516661E-1,4.8371916E0,-1.0232337E-2,-1.0079345E-2,2.7621156E-2,1.0126635E-1,2.8755287E-2,1.680124E-2,4.242383E-1,1.5397136E0,3.722E-1,5.2832317E-2,2.1334928E-2,2.775476E-2,-4.851699E-4,4.022835E-2,2.3413308E-2,-2.251513E-2,-4.569765E-2,3.3826563E-1,1.13758326E-1,1.1649896E-1,5.300694E-2,6.817961E-1,-1.5657884E-1,8.3676815E-1,1.490245E-1,8.1558794E-1,4.3792832E-1,1.0490111E0,3.997097E-1,6.867023E-2,4.7992915E-1,3.387027E-1,3.0713694E0,3.1308527E0,-3.9625883E-2,6.1142556E-2,1.1799656E0,-2.8650153E0,-8.6529285E-2,-1.2874829E0,8.029919E0,7.661391E-1,8.4001444E-2,1.4245426E-2,-2.3980694E-2,9.355731E-2,-1.0232337E-2],"categories":[],"categories_nodes":[],"categories_segments":[],"categories_sizes":[],"default_left":[0,0,0,0,0,0,0,0,0,0,0,0,0,0,0,0,0,0,0,0,0,0,0,0,0,0,0,0,0,0,0,0,0,0,0,0,0,0,0,0,0,0,0,0,0,0,0,0,0,0,0,0,0,0,0,0,0,0,0,0,0,0,0,0,0,0,0,0,0,0,0,0,0,0,0,0,0,0,0,0,0,0,0,0,0,0,0,0,0,0,0,0,0,0,0,0,0,0,0,0,0,0,0,0,0],"id":9,"left_children":[1,3,5,7,9,11,13,15,17,19,21,23,25,27,29,31,33,35,37,39,41,43,45,47,49,51,53,-1,55,57,-1,59,61,63,65,67,69,71,73,-1,75,77,79,81,83,85,-1,87,89,91,93,95,97,99,101,-1,103,-1,-1,-1,-1,-1,-1,-1,-1,-1,-1,-1,-1,-1,-1,-1,-1,-1,-1,-1,-1,-1,-1,-1,-1,-1,-1,-1,-1,-1,-1,-1,-1,-1,-1,-1,-1,-1,-1,-1,-1,-1,-1,-1,-1,-1,-1,-1,-1],"loss_changes":[6.235205E2,3.5673965E2,4.0831842E2,4.9385468E1,8.211594E1,3.9551526E2,2.246167E2,4.9803112E1,1.5935402E0,4.9134308E1,2.4613922E1,3.7080554E2,7.930872E2,9.998286E-1,1.3983069E2,4.4174065E1,3.2048038E2,4.925567E-1,1.0717926E0,1.3479797E1,2.8010117E1,3.0333633E1,7.754036E0,3.001316E2,2.6491202E2,1.6648419E3,1.8814484E1,0E0,2.340374E0,2.097472E2,0E0,4.2235825E1,1.3803177E0,4.2058205E1,1.4513464E2,2.2583902E-1,1.1928854E-1,1.0411148E0,9.714067E-3,0E0,1.0116974E1,2.8319504E1,8.314662E1,1.4362623E1,4.318512E0,8.28598E-1,0E0,2.2354932E2,5.0604254E2,2.9967737E2,2.2123976E2,6.0222214E1,1.6261128E3,2.7424183E1,4.743003E-2,0E0,9.3977116E-2,0E0,0E0,0E0,0E0,0E0,0E0,0E0,0E0,0E0,0E0,0E0,0E0,0E0,0E0,0E0,0E0,0E0,0E0,0E0,0E0,0E0,0E0,0E0,0E0,0E0,0E0,0E0,0E0,0E0,0E0,0E0,0E0,0E0,0E0,0E0,0E0,0E0,0E0,0E0,0E0,0E0,0E0,0E0,0E0,0E0,0E0,0E0,0E0],"parents":[2147483647,0,0,1,1,2,2,3,3,4,4,5,5,6,6,7,7,8,8,9,9,10,10,11,11,12,12,13,13,14,14,15,15,16,16,17,17,18,18,19,19,20,20,21,21,22,22,23,23,24,24,25,25,26,26,28,28,29,29,31,31,32,32,33,33,34,34,35,35,36,36,37,37,38,38,40,40,41,41,42,42,43,43,44,44,45,45,47,47,48,48,49,49,50,50,51,51,52,52,53,53,54,54,56,56],"right_children":[2,4,6,8,10,12,14,16,18,20,22,24,26,28,30,32,34,36,38,40,42,44,46,48,50,52,54,-1,56,58,-1,60,62,64,66,68,70,72,74,-1,76,78,80,82,84,86,-1,88,90,92,94,96,98,100,102,-1,104,-1,-1,-1,-1,-1,-1,-1,-1,-1,-1,-1,-1,-1,-1,-1,-1,-1,-1,-1,-1,-1,-1,-1,-1,-1,-1,-1,-1,-1,-1,-1,-1,-1,-1,-1,-1,-1,-1,-1,-1,-1,-1,-1,-1,-1,-1,-1,-1],"split_conditions":[1E0,1E0,1E0,1E0,1.7341249E0,1E0,2.0729402E-1,1E0,-1.1588178E0,-1.6676085E0,1E0,1E0,2.0729402E-1,1.9204932E-1,2.8765354E-1,1E0,1E0,4.6755418E-1,2.051707E0,-1.8742372E0,1.9139547E0,1.8948439E0,4.6755418E-1,1E0,-1.3232274E0,1.269345E-1,4.4837257E-1,-1.0232337E-2,2.6092553E-1,1E0,-1.0232337E-2,1E0,-1.8053609E0,1E0,1E0,-1.962413E0,-1.8820534E0,1.1716082E0,2.1205833E0,6.286763E-1,6.090916E-1,1E0,2.051707E0,-1.4609798E0,-9.788463E-1,3.2980177E-1,3.3571657E-2,1E0,5.42969E-2,-3.552226E-1,-9.099701E-1,9.496877E-1,8.1193525E-1,8.8081145E-1,9.496877E-1,5.472888E-1,1E0,4.8371916E0,-1.0232337E-2,-1.0079345E-2,2.7621156E-2,1.0126635E-1,2.8755287E-2,1.680124E-2,4.242383E-1,1.5397136E0,3.722E-1,5.2832317E-2,2.1334928E-2,2.775476E-2,-4.851699E-4,4.022835E-2,2.3413308E-2,-2.251513E-2,-4.569765E-2,3.3826563E-1,1.13758326E-1,1.1649896E-1,5.300694E-2,6.817961E-1,-1.5657884E-1,8.3676815E-1,1.490245E-1,8.1558794E-1,4.3792832E-1,1.0490111E0,3.997097E-1,6.867023E-2,4.7992915E-1,3.387027E-1,3.0713694E0,3.1308527E0,-3.9625883E-2,6.1142556E-2,1.1799656E0,-2.8650153E0,-8.6529285E-2,-1.2874829E0,8.029919E0,7.661391E-1,8.4001444E-2,1.4245426E-2,-2.3980694E-2,9.355731E-2,-1.0232337E-2],"split_indices":[64,40,7,61,1,26,1,45,1,0,11,19,1,0,1,59,8,0,0,0,0,1,0,6,0,1,1,0,0,35,0,44,0,21,35,1,1,1,0,0,1,37,0,0,0,0,0,18,0,1,0,0,0,0,0,0,35,0,0,0,0,0,0,0,0,0,0,0,0,0,0,0,0,0,0,0,0,0,0,0,0,0,0,0,0,0,0,0,0,0,0,0,0,0,0,0,0,0,0,0,0,0,0,0,0],"split_type":[0,0,0,0,0,0,0,0,0,0,0,0,0,0,0,0,0,0,0,0,0,0,0,0,0,0,0,0,0,0,0,0,0,0,0,0,0,0,0,0,0,0,0,0,0,0,0,0,0,0,0,0,0,0,0,0,0,0,0,0,0,0,0,0,0,0,0,0,0,0,0,0,0,0,0,0,0,0,0,0,0,0,0,0,0,0,0,0,0,0,0,0,0,0,0,0,0,0,0,0,0,0,0,0,0],"sum_hessian":[1.1518E5,1.12414E5,2.766E3,1.09659E5,2.755E3,2.757E3,9E0,1.06906E5,2.753E3,2.68E3,7.5E1,2.713E3,4.4E1,4E0,5E0,1.04163E5,2.743E3,4.17E2,2.336E3,9.3E1,2.587E3,6.6E1,9E0,2.637E3,7.6E1,1E1,3.4E1,1E0,3E0,4E0,1E0,1.01402E5,2.761E3,2.703E3,4E1,2.72E2,1.45E2,2.32E3,1.6E1,1E1,8.3E1,2.545E3,4.2E1,4.6E1,2E1,8E0,1E0,2.603E3,3.4E1,1.1E1,6.5E1,3E0,7E0,2.1E1,1.3E1,1E0,2E0,3E0,1E0,9.8654E4,2.748E3,2.3E1,2.738E3,2.681E3,2.2E1,1.6E1,2.4E1,2.2E1,2.5E2,1.4E1,1.31E2,1.913E3,4.07E2,6E0,1E1,5.4E1,2.9E1,1.188E3,1.357E3,2.4E1,1.8E1,2E0,4.4E1,9E0,1.1E1,6E0,2E0,2.479E3,1.24E2,2.7E1,7E0,7E0,4E0,3.9E1,2.6E1,2E0,1E0,2E0,5E0,1.1E1,1E1,1E1,3E0,1E0,1E0],"tree_param":{"num_deleted":"0","num_feature":"95","num_nodes":"105","size_leaf_vector":"1"}},{"base_weights":[-8.204546E-5,-1.175821E-2,4.7746843E-1,-2.1719674E-2,3.8645047E-1,5.9685194E-1,1.8587424E-1,-2.8814817E-2,2.5297195E-1,2.95975E-1,6.3439927E0,6.1275095E-1,-4.0711057E-1,6.405146E-2,2.4210297E-1,-3.5502456E-2,2.2417006E-1,3.0629945E-1,2.0616591E-1,1.4442994E-1,9.620615E-1,1.1150855E1,2.8215663E0,-2.4578205E-1,6.283585E-1,-1.402916E-1,-2.1632528E-1,5.739798E-1,4.7276244E-2,3.973975E-1,1.7221674E-1,-4.1820634E-2,1.9607037E-1,2.7485105E-1,1.8192725E-1,3.2071787E-1,7.833253E-2,4.4838384E-2,2.3058209E-1,1.2405312E-1,5.100326E0,1.284226E0,1.5444407E-1,1.6657814E1,-1.7215372E0,4.0553937E0,1.5624598E0,-1.21924885E-1,-5.179193E-2,5.3174055E-1,7.7826667E-1,-1.7365263E-1,7.2907984E-2,-2.6742533E-2,2.0443381E-1,-1.9311137E-1,9.327734E-2,3.4709033E-1,7.5483125E-1,3.4787184E-1,8.440275E-2,-1.6536025E-2,2.006844E-2,1.102454E-1,-6.49099E-2,2.5363922E-1,8.0870256E-2,6.528896E-2,1.7119281E-2,1.1135148E-1,6.987659E-2,6.061965E-2,-4.886076E-2,1.0202074E-1,-2.6360033E-3,7.140092E-2,-1.004257E-1,3.220414E-2,1.599877E0,-8.427133E-1,2.3284314E0,4.5265177E-1,-8.161165E-2,3.584773E-3,6.871617E-1,1.4007179E0,8.3605175E0,2.874009E-1,-1.4161236E0,-2.7760789E-2,1.6344956E0,1.0583178E0,-2.7203006E-1,5.0421096E-2,-7.9769865E-2,1.9675063E-1,7.627588E-2,1.8080454E-1,3.5724753E-1,1.5378225E-1,-1.576528E-1,-4.5188695E-2,-7.0999816E-2,6.872321E-2,9.39929E-3,1.2285309E-1,-1.0408334E-2,7.185604E-2,3.7385714E-1,2.7406301E-2,3.2040495E-1,4.0241927E-2,-4.295298E-3],"categories":[],"categories_nodes":[],"categories_segments":[],"categories_sizes":[],"default_left":[0,0,0,0,0,0,0,0,0,0,0,0,0,0,0,0,0,0,0,0,0,0,0,0,0,0,0,0,0,0,0,0,0,0,0,0,0,0,0,0,0,0,0,0,0,0,0,0,0,0,0,0,0,0,0,0,0,0,0,0,0,0,0,0,0,0,0,0,0,0,0,0,0,0,0,0,0,0,0,0,0,0,0,0,0,0,0,0,0,0,0,0,0,0,0,0,0,0,0,0,0,0,0,0,0,0,0,0,0,0,0,0,0],"id":10,"left_children":[1,3,5,7,9,11,13,15,17,19,21,23,25,27,29,31,33,35,37,39,41,43,45,47,49,51,-1,53,55,57,59,61,63,65,67,69,71,73,75,77,79,81,83,85,87,89,91,-1,93,95,97,-1,99,-1,-1,101,103,105,107,109,111,-1,-1,-1,-1,-1,-1,-1,-1,-1,-1,-1,-1,-1,-1,-1,-1,-1,-1,-1,-1,-1,-1,-1,-1,-1,-1,-1,-1,-1,-1,-1,-1,-1,-1,-1,-1,-1,-1,-1,-1,-1,-1,-1,-1,-1,-1,-1,-1,-1,-1,-1,-1],"loss_changes":[6.4225006E2,4.4600098E2,9.5586E1,2.1379051E2,1.4771699E3,3.1375305E1,5.464445E0,1.8091809E2,6.8309326E0,2.728086E2,6.627416E2,2.5881653E1,2.4958358E0,2.1456208E0,5.868122E0,1.5243005E2,5.846054E0,4.2117233E0,5.7957497E0,2.2193909E2,1.3015463E2,1.2337686E3,3.2501633E1,1.0696015E0,2.690271E1,1.7251806E0,0E0,6.3085055E-1,2.7493625E0,2.7768745E0,5.816703E0,1.4662788E2,1.9569962E2,3.5406647E0,6.6967773E0,5.2822647E0,2.360789E0,3.0901823E0,5.449692E0,1.905221E2,2.1123169E2,1.2555206E2,4.38037E1,1.4826909E3,5.2735794E1,6.983722E1,7.1136444E1,0E0,8.4495085E-1,3.9433258E1,5.266986E1,0E0,3.6899886E0,0E0,0E0,3.8363338E-2,1.742585E0,3.5888577E0,4.7655697E0,2.3178377E1,1.2490749E0,0E0,0E0,0E0,0E0,0E0,0E0,0E0,0E0,0E0,0E0,0E0,0E0,0E0,0E0,0E0,0E0,0E0,0E0,0E0,0E0,0E0,0E0,0E0,0E0,0E0,0E0,0E0,0E0,0E0,0E0,0E0,0E0,0E0,0E0,0E0,0E0,0E0,0E0,0E0,0E0,0E0,0E0,0E0,0E0,0E0,0E0,0E0,0E0,0E0,0E0,0E0,0E0],"parents":[2147483647,0,0,1,1,2,2,3,3,4,4,5,5,6,6,7,7,8,8,9,9,10,10,11,11,12,12,13,13,14,14,15,15,16,16,17,17,18,18,19,19,20,20,21,21,22,22,23,23,24,24,25,25,27,27,28,28,29,29,30,30,31,31,32,32,33,33,34,34,35,35,36,36,37,37,38,38,39,39,40,40,41,41,42,42,43,43,44,44,45,45,46,46,48,48,49,49,50,50,52,52,55,55,56,56,57,57,58,58,59,59,60,60],"right_children":[2,4,6,8,10,12,14,16,18,20,22,24,26,28,30,32,34,36,38,40,42,44,46,48,50,52,-1,54,56,58,60,62,64,66,68,70,72,74,76,78,80,82,84,86,88,90,92,-1,94,96,98,-1,100,-1,-1,102,104,106,108,110,112,-1,-1,-1,-1,-1,-1,-1,-1,-1,-1,-1,-1,-1,-1,-1,-1,-1,-1,-1,-1,-1,-1,-1,-1,-1,-1,-1,-1,-1,-1,-1,-1,-1,-1,-1,-1,-1,-1,-1,-1,-1,-1,-1,-1,-1,-1,-1,-1,-1,-1,-1,-1],"split_conditions":[1E0,1E0,1E0,1E0,1E0,1.8450785E0,-1.2391773E0,1E0,-8.345553E-2,1E0,1E0,-1.5987322E0,1.9828309E0,-1.5298561E0,-2.748631E-1,1E0,-8.345553E-2,1E0,-1.3195368E0,1E0,6.090916E-1,5.42969E-2,-1.5233174E-1,-1.6676085E0,3.6801305E-1,5.2873206E-1,-2.1632528E-1,-1.4802558E0,-9.099701E-1,1.5695736E0,-1.1165987E0,1E0,1E0,-1.8742372E0,1E0,6.090916E-1,-7.033415E-1,-1.8820534E0,2.051707E0,1E0,2.0729402E-1,7.4305904E-1,1E0,-1.4579316E-2,1.2317312E-1,-2.9008418E-1,1.269345E-1,-1.21924885E-1,4.4837257E-1,-3.378453E-2,6.053066E-1,-1.7365263E-1,8.5017014E-1,-2.6742533E-2,2.0443381E-1,-1.3998963E0,-2.2120796E-1,-5.159416E-1,-4.3558213E-1,-1.3232274E0,1.2251925E0,-1.6536025E-2,2.006844E-2,1.102454E-1,-6.49099E-2,2.5363922E-1,8.0870256E-2,6.528896E-2,1.7119281E-2,1.1135148E-1,6.987659E-2,6.061965E-2,-4.886076E-2,1.0202074E-1,-2.6360033E-3,7.140092E-2,-1.004257E-1,3.220414E-2,1.599877E0,-8.427133E-1,2.3284314E0,4.5265177E-1,-8.161165E-2,3.584773E-3,6.871617E-1,1.4007179E0,8.3605175E0,2.874009E-1,-1.4161236E0,-2.7760789E-2,1.6344956E0,1.0583178E0,-2.7203006E-1,5.0421096E-2,-7.9769865E-2,1.9675063E-1,7.627588E-2,1.8080454E-1,3.5724753E-1,1.5378225E-1,-1.576528E-1,-4.5188695E-2,-7.0999816E-2,6.872321E-2,9.39929E-3,1.2285309E-1,-1.0408334E-2,7.185604E-2,3.7385714E-1,2.7406301E-2,3.2040495E-1,4.0241927E-2,-4.295298E-3],"split_indices":[44,45,27,59,8,0,1,61,0,35,35,0,0,0,1,64,0,29,1,6,1,0,0,0,1,1,0,1,0,0,0,49,27,0,27,1,0,1,0,7,1,0,20,0,0,0,1,0,1,1,0,0,1,0,0,1,0,1,1,0,0,0,0,0,0,0,0,0,0,0,0,0,0,0,0,0,0,0,0,0,0,0,0,0,0,0,0,0,0,0,0,0,0,0,0,0,0,0,0,0,0,0,0,0,0,0,0,0,0,0,0,0,0],"split_type":[0,0,0,0,0,0,0,0,0,0,0,0,0,0,0,0,0,0,0,0,0,0,0,0,0,0,0,0,0,0,0,0,0,0,0,0,0,0,0,0,0,0,0,0,0,0,0,0,0,0,0,0,0,0,0,0,0,0,0,0,0,0,0,0,0,0,0,0,0,0,0,0,0,0,0,0,0,0,0,0,0,0,0,0,0,0,0,0,0,0,0,0,0,0,0,0,0,0,0,0,0,0,0,0,0,0,0,0,0,0,0,0,0],"sum_hessian":[1.1518E5,1.12432E5,2.748E3,1.09689E5,2.743E3,1.949E3,7.99E2,1.06928E5,2.761E3,2.703E3,4E1,1.919E3,3E1,2.53E2,5.46E2,1.04175E5,2.753E3,1.288E3,1.473E3,2.203E3,5E2,1.6E1,2.4E1,3.4E1,1.885E3,1.7E1,1.3E1,7E0,2.46E2,1.68E2,3.78E2,1.01409E5,2.766E3,1.249E3,1.504E3,1.211E3,7.7E1,1.94E2,1.279E3,2.195E3,8E0,3.57E2,1.43E2,1.1E1,5E0,1.1E1,1.3E1,1.8E1,1.6E1,1.149E3,7.36E2,5E0,1.2E1,1E0,6E0,3.9E1,2.07E2,1.49E2,1.9E1,1.25E2,2.53E2,9.0356E4,1.1053E4,1.954E3,8.12E2,1E1,1.239E3,1.169E3,3.35E2,7.67E2,4.44E2,5.1E1,2.6E1,2.9E1,1.65E2,1.263E3,1.6E1,2.189E3,6E0,2E0,6E0,3.12E2,4.5E1,1.35E2,8E0,6E0,5E0,3E0,2E0,3E0,8E0,7E0,6E0,8E0,8E0,7.93E2,3.56E2,5.18E2,2.18E2,7E0,5E0,2.2E1,1.7E1,6.4E1,1.43E2,1.28E2,2.1E1,1E1,9E0,9.3E1,3.2E1,1.68E2,8.5E1],"tree_param":{"num_deleted":"0","num_feature":"95","num_nodes":"113","size_leaf_vector":"1"}},{"base_weights":[1.145156E-3,-2.732686E-3,1.575891E-1,-5.4164897E-3,1.0423607E-1,2.8815266E-2,2.9453604E0,-7.858954E-3,8.92456E-2,7.266947E-2,8.0180424E-1,1.5804196E-2,4.9699426E-1,1.5104176E1,-2.208799E-3,-7.4223815E-3,-2.4333365E-2,2.5407437E-2,2.6142347E0,5.1872805E-2,7.8128284E-1,2.5665107E0,5.4676277E-3,2.6471233E-1,7.7750026E-3,9.009922E-1,-2.3281963E-3,2.96068E0,2.0990881E1,-7.20147E-3,6.4868703E-3,-7.7682566E-3,-1.227937E-3,-2.0768143E-2,-1.5901716E-1,4.9390075E-1,6.3826204E-3,4.1468686E-1,1.3974193E1,3.78366E-2,5.814852E-1,2.6660413E-1,3.2153964E0,-2.3132984E-3,1.3599991E1,-7.158714E-3,2.6878223E-2,6.230896E-1,-7.7965083E-3,2.163842E-3,2.7329236E-1,-2.3253104E-3,2.589212E0,-2.5148511E-2,4.4577856E0,2.2211056E0,2.706238E1,-5.066277E-3,-8.529069E-3,3.140339E-2,-5.262557E-3,-2.335815E-3,-2.1446398E-3,-6.730959E-4,2.1714132E-2,-2.6051292E-2,-5.2051963E-3,-2.1932421E-2,-1.7259336E-1,4.6854134E0,5.949084E-2,-7.7438296E-4,1.3050212E-1,2.0323336E0,-1.6614234E-2,9.097085E0,8.991605E-2,1.6042014E-3,7.901459E-2,-1.937269E-1,7.1342534E-1,3.9487258E-1,-2.6648806E-2,-2.2501934E-3,2.5120595E0,5.1952424E0,-1.3057375E0,1.2052569E-3,-3.054444E-3,8.193987E-2,-2.7782852E-3,2.2678798E-2,1.1678796E0,-1.095155E-3,-3.9633214E-3,-3.5132683E-4,7.911745E-2,3.3414757E-1,-2.0139401E-3,1.1774569E0,4.2332765E-1,-3.4214193E-1,2.180352E-1,-2.0367987E-3,2.0075312E0,3.1961378E-2,1.0785915E0,1.0616332E1,4.6939597E-1,-2.153316E-3,1.6978848E-3,-7.3489356E-3,-2.0884606E-3,2.2081528E-2,-2.7767092E-3,6.2535104E-4,-3.2368104E-3],"categories":[],"categories_nodes":[],"categories_segments":[],"categories_sizes":[],"default_left":[0,0,0,0,0,0,0,0,0,0,0,0,0,0,0,0,0,0,0,0,0,0,0,0,0,0,0,0,0,0,0,0,0,0,0,0,0,0,0,0,0,0,0,0,0,0,0,0,0,0,0,0,0,0,0,0,0,0,0,0,0,0,0,0,0,0,0,0,0,0,0,0,0,0,0,0,0,0,0,0,0,0,0,0,0,0,0,0,0,0,0,0,0,0,0,0,0,0,0,0,0,0,0,0,0,0,0,0,0,0,0,0,0,0,0,0,0],"id":11,"left_children":[1,3,5,7,9,11,13,15,17,19,21,23,25,27,29,31,33,35,37,39,41,43,45,47,49,51,-1,53,55,57,59,61,63,65,67,69,71,73,75,77,79,81,83,-1,85,87,89,91,93,95,97,-1,99,101,103,105,107,109,111,113,115,-1,-1,-1,-1,-1,-1,-1,-1,-1,-1,-1,-1,-1,-1,-1,-1,-1,-1,-1,-1,-1,-1,-1,-1,-1,-1,-1,-1,-1,-1,-1,-1,-1,-1,-1,-1,-1,-1,-1,-1,-1,-1,-1,-1,-1,-1,-1,-1,-1,-1,-1,-1,-1,-1,-1,-1],"loss_changes":[6.987669E1,3.226756E1,1.0000667E3,2.5351828E1,6.051835E1,1.6219927E1,4.4082246E3,7.6859474E-1,4.4449747E2,3.876146E1,1.672167E2,5.1801353E0,1.4689228E1,1.6534966E3,4.388177E-3,2.2309208E-1,1.3215078E0,2.398173E1,1.6933055E3,1.9000957E1,9.3101746E1,1.0510018E3,2.2630423E-2,7.915397E0,3.743428E0,6.1386402E1,0E0,4.034301E1,1.7632627E3,1.3820897E-4,1.0997189E-2,1.0313988E-3,4.1196913E-1,6.056478E-1,2.4971442E0,4.6632278E2,9.940753E0,1.7376712E2,2.4501785E3,1.8274132E1,1.470565E2,2.3620733E1,2.161766E2,0E0,5.425393E2,1.8314105E-3,2.784121E-1,6.2363327E1,1.0068628E-3,2.1478817E0,1.2245875E1,0E0,1.6491348E1,4.1834726E0,5.9888184E1,1.4146145E1,2.4919736E3,6.520951E-4,7.805845E-4,2.1271858E-2,1.0782416E-3,0E0,0E0,0E0,0E0,0E0,0E0,0E0,0E0,0E0,0E0,0E0,0E0,0E0,0E0,0E0,0E0,0E0,0E0,0E0,0E0,0E0,0E0,0E0,0E0,0E0,0E0,0E0,0E0,0E0,0E0,0E0,0E0,0E0,0E0,0E0,0E0,0E0,0E0,0E0,0E0,0E0,0E0,0E0,0E0,0E0,0E0,0E0,0E0,0E0,0E0,0E0,0E0,0E0,0E0,0E0,0E0],"parents":[2147483647,0,0,1,1,2,2,3,3,4,4,5,5,6,6,7,7,8,8,9,9,10,10,11,11,12,12,13,13,14,14,15,15,16,16,17,17,18,18,19,19,20,20,21,21,22,22,23,23,24,24,25,25,27,27,28,28,29,29,30,30,31,31,32,32,33,33,34,34,35,35,36,36,37,37,38,38,39,39,40,40,41,41,42,42,44,44,45,45,46,46,47,47,48,48,49,49,50,50,52,52,53,53,54,54,55,55,56,56,57,57,58,58,59,59,60,60],"right_children":[2,4,6,8,10,12,14,16,18,20,22,24,26,28,30,32,34,36,38,40,42,44,46,48,50,52,-1,54,56,58,60,62,64,66,68,70,72,74,76,78,80,82,84,-1,86,88,90,92,94,96,98,-1,100,102,104,106,108,110,112,114,116,-1,-1,-1,-1,-1,-1,-1,-1,-1,-1,-1,-1,-1,-1,-1,-1,-1,-1,-1,-1,-1,-1,-1,-1,-1,-1,-1,-1,-1,-1,-1,-1,-1,-1,-1,-1,-1,-1,-1,-1,-1,-1,-1,-1,-1,-1,-1,-1,-1,-1,-1,-1,-1,-1,-1,-1],"split_conditions":[1E0,1E0,1E0,1E0,1E0,1E0,-1.1414405E-1,1E0,1E0,1E0,1.269345E-1,-1.6676085E0,-1.1414405E-1,-2.748631E-1,-1.3921037E0,1E0,1E0,-1.6676085E0,4.6574987E-2,1E0,4.6574987E-2,4.6574987E-2,7.698106E-1,-1.1414405E-1,1E0,-2.748631E-1,-2.3281963E-3,-1.5298561E0,-1.6676085E0,5.2873206E-1,-1.3232274E0,1E0,1E0,-1.5987322E0,4.6574987E-2,-1.2391773E0,1E0,-5.9630114E-1,1.269345E-1,1.2940688E0,-3.378453E-2,1.2251925E0,1.4318212E0,-2.3132984E-3,-1.2543511E0,-1.5987322E0,8.5017014E-1,-2.748631E-1,-1.7364846E0,1E0,2.0729402E-1,-2.3253104E-3,-1.9450356E-1,-1.6676085E0,-3.552226E-1,-1.7364846E0,-1.3921037E0,-1.4609798E0,6.090916E-1,5.2873206E-1,-1.2543511E0,-2.335815E-3,-2.1446398E-3,-6.730959E-4,2.1714132E-2,-2.6051292E-2,-5.2051963E-3,-2.1932421E-2,-1.7259336E-1,4.6854134E0,5.949084E-2,-7.7438296E-4,1.3050212E-1,2.0323336E0,-1.6614234E-2,9.097085E0,8.991605E-2,1.6042014E-3,7.901459E-2,-1.937269E-1,7.1342534E-1,3.9487258E-1,-2.6648806E-2,-2.2501934E-3,2.5120595E0,5.1952424E0,-1.3057375E0,1.2052569E-3,-3.054444E-3,8.193987E-2,-2.7782852E-3,2.2678798E-2,1.1678796E0,-1.095155E-3,-3.9633214E-3,-3.5132683E-4,7.911745E-2,3.3414757E-1,-2.0139401E-3,1.1774569E0,4.2332765E-1,-3.4214193E-1,2.180352E-1,-2.0367987E-3,2.0075312E0,3.1961378E-2,1.0785915E0,1.0616332E1,4.6939597E-1,-2.153316E-3,1.6978848E-3,-7.3489356E-3,-2.0884606E-3,2.2081528E-2,-2.7767092E-3,6.2535104E-4,-3.2368104E-3],"split_indices":[43,84,18,83,18,19,1,50,3,3,1,0,1,1,0,67,3,0,1,12,1,1,1,1,26,1,0,0,0,1,0,76,8,0,1,1,24,1,1,0,1,0,0,0,0,0,1,1,0,14,1,0,1,0,1,0,0,0,1,1,0,0,0,0,0,0,0,0,0,0,0,0,0,0,0,0,0,0,0,0,0,0,0,0,0,0,0,0,0,0,0,0,0,0,0,0,0,0,0,0,0,0,0,0,0,0,0,0,0,0,0,0,0,0,0,0,0],"split_type":[0,0,0,0,0,0,0,0,0,0,0,0,0,0,0,0,0,0,0,0,0,0,0,0,0,0,0,0,0,0,0,0,0,0,0,0,0,0,0,0,0,0,0,0,0,0,0,0,0,0,0,0,0,0,0,0,0,0,0,0,0,0,0,0,0,0,0,0,0,0,0,0,0,0,0,0,0,0,0,0,0,0,0,0,0,0,0,0,0,0,0,0,0,0,0,0,0,0,0,0,0,0,0,0,0,0,0,0,0,0,0,0,0,0,0,0,0],"sum_hessian":[1.1518E5,1.12395E5,2.785E3,1.09645E5,2.75E3,2.663E3,1.22E2,1.06888E5,2.757E3,2.632E3,1.18E2,2.592E3,7.1E1,2.3E1,9.9E1,1.0413E5,2.758E3,2.69E3,6.7E1,2.558E3,7.4E1,3.6E1,8.2E1,8E1,2.512E3,3.9E1,3.2E1,8E0,1.5E1,6.3E1,3.6E1,9.8623E4,5.507E3,2.688E3,7E1,1.04E2,2.586E3,5.7E1,1E1,2.493E3,6.5E1,6.2E1,1.2E1,3E1,6E0,5.2E1,3E1,3.4E1,4.6E1,2.461E3,5.1E1,2.6E1,1.3E1,3E0,5E0,4E0,1.1E1,2.6E1,3.7E1,1.1E1,2.5E1,9.5858E4,2.765E3,5.433E3,7.4E1,1.31E2,2.557E3,5.9E1,1.1E1,1E0,1.03E2,2.534E3,5.2E1,3E0,5.4E1,4E0,6E0,2.18E3,3.13E2,3.9E1,2.6E1,1.5E1,4.7E1,8E0,4E0,5E0,1E0,1.1E1,4.1E1,3E0,2.7E1,3E1,4E0,2.7E1,1.9E1,2.431E3,3E1,1.2E1,3.9E1,5E0,8E0,1E0,2E0,2E0,3E0,2E0,2E0,8E0,3E0,2.2E1,4E0,2E0,3.5E1,5E0,6E0,1.1E1,1.4E1],"tree_param":{"num_deleted":"0","num_feature":"95","num_nodes":"117","size_leaf_vector":"1"}},{"base_weights":[2.4177355E-4,-3.7549273E-3,1.6291696E-1,-6.9458988E-3,1.217717E-1,7.2403854E-1,1.5794075E-1,-3.1933133E-2,8.764539E-3,6.682901E-1,1.1678266E-1,3.1163397E-1,6.091513E-1,1.6713391E-1,7.7175563E-3,-2.9434852E-2,-4.3913567E-1,2.8094093E-3,2.3627175E-1,8.8290304E-1,5.153603E-1,1.0901165E-1,3.9384207E-1,1.4840764E-1,7.528387E-1,1.6080628E-1,3.7933064E-1,-1.7427748E-1,1.0564068E-1,-2.540996E-2,-1.8495922E-1,-3.0150622E-2,-3.5253117E0,-2.725664E-3,2.1211867E-1,3.828961E0,-5.0659604E-2,6.8564616E-2,2.8083864E-1,3.4726754E-1,2.9245347E-1,2.6101336E-1,1.0641623E-1,2.7200723E-1,1.1585679E0,2.7574116E-1,-1.4002243E-1,3.787942E-1,5.772799E-1,5.1210666E-1,1.5749143E-1,2.7199954E-1,1.0390499E0,-2.2498006E-1,-6.369986E-2,1.5907466E-1,-1.7717294E-1,-8.61568E-3,9.776162E-4,-4.424719E-2,-4.5397142E-1,-1.1654561E-2,2.9845325E-2,-3.8587255E-3,2.4793753E-2,4.3294083E-2,2.1891615E0,7.312974E0,1.9425996E-1,-1.1214286E-2,-2.0293207E-1,1.7837037E-1,-1.2588759E-1,4.4196337E-2,2.0597486E-2,4.247328E-2,1.8358625E-1,3.995421E-1,-6.0087543E-2,1.17637224E-1,2.6875487E-1,2.245185E-1,5.5890504E-2,5.1968575E-2,2.7711928E-2,1.12265125E-1,1.4489548E-3,3.564992E-1,-4.5671728E-2,-5.0642047E-2,-7.423136E-2,-5.1140238E-2,4.310484E-2,6.4147726E-2,-6.1650265E-2,-6.619081E-2,-2.5069023E-2],"categories":[],"categories_nodes":[],"categories_segments":[],"categories_sizes":[],"default_left":[0,0,0,0,0,0,0,0,0,0,0,0,0,0,0,0,0,0,0,0,0,0,0,0,0,0,0,0,0,0,0,0,0,0,0,0,0,0,0,0,0,0,0,0,0,0,0,0,0,0,0,0,0,0,0,0,0,0,0,0,0,0,0,0,0,0,0,0,0,0,0,0,0,0,0,0,0,0,0,0,0,0,0,0,0,0,0,0,0,0,0,0,0,0,0,0,0],"id":12,"left_children":[1,3,5,7,9,11,13,15,17,19,21,-1,23,25,27,29,31,33,35,37,39,41,43,45,47,49,51,53,55,57,59,61,-1,63,65,67,69,-1,-1,71,-1,-1,73,75,77,-1,-1,-1,79,81,83,85,87,89,91,93,95,-1,-1,-1,-1,-1,-1,-1,-1,-1,-1,-1,-1,-1,-1,-1,-1,-1,-1,-1,-1,-1,-1,-1,-1,-1,-1,-1,-1,-1,-1,-1,-1,-1,-1,-1,-1,-1,-1,-1,-1],"loss_changes":[7.488716E1,4.5030888E1,7.5978622E0,4.3038242E1,7.5210037E0,2.3506069E-1,3.781334E0,4.304151E1,9.119735E1,3.6550426E-1,5.9058876E0,0E0,1.2123337E0,3.4045181E0,2.852033E0,2.6326687E1,1.1932566E3,7.599746E1,1.7701722E3,9.950495E-2,9.7448015E-1,5.2187176E0,6.6726294E0,3.2736804E0,6.1362076E-1,2.8399277E0,4.9572E0,2.9963684E-1,1.5998172E0,3.8899899E0,5.258142E1,2.8575343E-1,0E0,5.5306396E1,8.1083093E2,8.286302E3,1.3195166E1,0E0,0E0,2.904636E0,0E0,0E0,4.1306496E0,2.8397455E0,2.6208258E0,0E0,0E0,0E0,4.1552067E-1,1.6312022E0,2.5315933E0,1.7733054E0,1.9592772E0,6.1688423E-3,4.4518644E-1,1.8005002E0,5.072844E-2,0E0,0E0,0E0,0E0,0E0,0E0,0E0,0E0,0E0,0E0,0E0,0E0,0E0,0E0,0E0,0E0,0E0,0E0,0E0,0E0,0E0,0E0,0E0,0E0,0E0,0E0,0E0,0E0,0E0,0E0,0E0,0E0,0E0,0E0,0E0,0E0,0E0,0E0,0E0,0E0],"parents":[2147483647,0,0,1,1,2,2,3,3,4,4,5,5,6,6,7,7,8,8,9,9,10,10,12,12,13,13,14,14,15,15,16,16,17,17,18,18,19,19,20,20,21,21,22,22,23,23,24,24,25,25,26,26,27,27,28,28,29,29,30,30,31,31,33,33,34,34,35,35,36,36,39,39,42,42,43,43,44,44,48,48,49,49,50,50,51,51,52,52,53,53,54,54,55,55,56,56],"right_children":[2,4,6,8,10,12,14,16,18,20,22,-1,24,26,28,30,32,34,36,38,40,42,44,46,48,50,52,54,56,58,60,62,-1,64,66,68,70,-1,-1,72,-1,-1,74,76,78,-1,-1,-1,80,82,84,86,88,90,92,94,96,-1,-1,-1,-1,-1,-1,-1,-1,-1,-1,-1,-1,-1,-1,-1,-1,-1,-1,-1,-1,-1,-1,-1,-1,-1,-1,-1,-1,-1,-1,-1,-1,-1,-1,-1,-1,-1,-1,-1,-1],"split_conditions":[1E0,1E0,-1.8053609E0,-2.748631E-1,-1.8053609E0,-7.570202E-1,1E0,1E0,1E0,-1.8742372E0,1.7341249E0,3.1163397E-1,-5.159416E-1,1.7341249E0,-1.1588178E0,1E0,1E0,1E0,-1.1414405E-1,-8.373797E-1,9.3052965E-1,-2.0427725E0,1E0,-1.8742372E0,5.2873206E-1,-1.962413E0,1E0,-1.3195368E0,-5.9630114E-1,1E0,1E0,1E0,-3.5253117E0,1E0,1E0,-1.3921037E0,1E0,6.8564616E-2,2.8083864E-1,6.090916E-1,2.9245347E-1,2.6101336E-1,1E0,1.8948439E0,4.6755418E-1,2.7574116E-1,-1.4002243E-1,3.787942E-1,1.0108892E0,1.2317312E-1,1.0108892E0,-1.5233174E-1,4.6755418E-1,8.8081145E-1,1.0874401E0,1.2940688E0,8.8081145E-1,-8.61568E-3,9.776162E-4,-4.424719E-2,-4.5397142E-1,-1.1654561E-2,2.9845325E-2,-3.8587255E-3,2.4793753E-2,4.3294083E-2,2.1891615E0,7.312974E0,1.9425996E-1,-1.1214286E-2,-2.0293207E-1,1.7837037E-1,-1.2588759E-1,4.4196337E-2,2.0597486E-2,4.247328E-2,1.8358625E-1,3.995421E-1,-6.0087543E-2,1.17637224E-1,2.6875487E-1,2.245185E-1,5.5890504E-2,5.1968575E-2,2.7711928E-2,1.12265125E-1,1.4489548E-3,3.564992E-1,-4.5671728E-2,-5.0642047E-2,-7.423136E-2,-5.1140238E-2,4.310484E-2,6.4147726E-2,-6.1650265E-2,-6.619081E-2,-2.5069023E-2],"split_indices":[59,71,0,1,0,1,5,18,43,0,1,0,1,1,1,83,43,83,1,1,1,1,11,0,1,1,11,1,1,49,3,79,0,49,24,0,19,0,0,1,0,0,37,1,0,0,0,0,1,0,1,0,0,0,0,0,0,0,0,0,0,0,0,0,0,0,0,0,0,0,0,0,0,0,0,0,0,0,0,0,0,0,0,0,0,0,0,0,0,0,0,0,0,0,0,0,0],"split_type":[0,0,0,0,0,0,0,0,0,0,0,0,0,0,0,0,0,0,0,0,0,0,0,0,0,0,0,0,0,0,0,0,0,0,0,0,0,0,0,0,0,0,0,0,0,0,0,0,0,0,0,0,0,0,0,0,0,0,0,0,0,0,0,0,0,0,0,0,0,0,0,0,0,0,0,0,0,0,0,0,0,0,0,0,0,0,0,0,0,0,0,0,0,0,0,0,0],"sum_hessian":[1.1518E5,1.12419E5,2.761E3,1.09633E5,2.786E3,2.3E1,2.738E3,4.2321E4,6.7312E4,2.4E1,2.762E3,4E0,1.9E1,2.58E3,1.58E2,4.2064E4,2.57E2,6.5596E4,1.716E3,8E0,1.6E1,2.688E3,7.4E1,5E0,1.4E1,2.507E3,7.3E1,5.5E1,1.03E2,4.1004E4,1.06E3,2.49E2,8E0,6.3907E4,1.689E3,1.26E2,1.59E3,1E0,7E0,1.3E1,3E0,8E0,2.68E3,6.5E1,9E0,2E0,3E0,2E0,1.2E1,2.2E1,2.485E3,6.4E1,9E0,3.7E1,1.8E1,8.7E1,1.6E1,3.6761E4,4.243E3,1.032E3,2.8E1,2.34E2,1.5E1,5.7125E4,6.782E3,1.674E3,1.5E1,1.6E1,1.1E2,1.558E3,3.2E1,1E1,3E0,1.285E3,1.395E3,4.8E1,1.7E1,8E0,1E0,9E0,3E0,1.2E1,1E1,2E3,4.85E2,4.6E1,1.8E1,8E0,1E0,1.3E1,2.4E1,1.2E1,6E0,7.6E1,1.1E1,1E1,6E0],"tree_param":{"num_deleted":"0","num_feature":"95","num_nodes":"97","size_leaf_vector":"1"}},{"base_weights":[6.4236496E-4,-7.595533E-3,3.3532348E-1,-1.3895154E-2,2.430663E-1,3.1706172E-1,5.3383846E0,-1.6595485E-2,8.9660324E-2,2.156687E-1,8.8197064E-1,4.9733934E-1,-3.4452435E-2,7.0309883E-1,8.311392E0,-1.9115105E-2,7.867028E-2,7.060727E-2,1.7298228E-1,1.174302E0,2.0532961E-1,7.2168595E-1,1.5498044E0,7.0781565E-1,-2.0367964E-3,-8.6974865E-3,8.933694E-1,9.985267E0,-8.6974865E-3,-2.173384E-2,7.764196E-2,7.543355E-2,1.999195E-1,3.0802408E-1,6.793317E-2,1.9521219E-1,1.097355E-1,1.2346035E0,-6.807623E-2,1.7763712E-1,4.7886047E-1,3.6821175E-2,1.1157297E0,6.9791496E-1,1.1617247E0,2.516015E-1,1.5604182E0,-3.021871E-1,7.056861E-2,4.6519542E-1,1.5739161E-1,1.2496079E1,-8.6974865E-3,-7.2794026E-3,2.0591162E-2,1.4240086E-2,6.1974794E-1,2.159796E-2,5.1152557E-2,7.145853E-2,-5.5216968E-2,1.17650665E-1,4.2777E-2,6.3148285E-3,2.3564395E-2,4.711522E-2,7.155696E-2,3.823372E-2,6.3118716E-3,2.5853172E-1,4.5577464E-1,1.4504015E-2,7.872496E-2,3.8946053E-1,9.69382E-2,3.2681328E-1,-6.555415E-2,6.325931E-1,2.824552E-1,5.098327E-1,6.827876E-2,4.4988733E-2,4.2786354E-1,1.1313951E0,2.1900715E-1,9.109272E-2,-5.4480527E-2,7.952371E-2,-8.6974865E-3,9.847853E-1,4.3419085E0],"categories":[],"categories_nodes":[],"categories_segments":[],"categories_sizes":[],"default_left":[0,0,0,0,0,0,0,0,0,0,0,0,0,0,0,0,0,0,0,0,0,0,0,0,0,0,0,0,0,0,0,0,0,0,0,0,0,0,0,0,0,0,0,0,0,0,0,0,0,0,0,0,0,0,0,0,0,0,0,0,0,0,0,0,0,0,0,0,0,0,0,0,0,0,0,0,0,0,0,0,0,0,0,0,0,0,0,0,0,0,0],"id":13,"left_children":[1,3,5,7,9,11,13,15,17,19,21,23,-1,25,27,29,31,33,35,37,39,41,43,45,47,-1,49,51,-1,53,55,57,59,61,63,65,67,69,-1,71,73,75,77,-1,79,81,83,-1,85,-1,87,89,-1,-1,-1,-1,-1,-1,-1,-1,-1,-1,-1,-1,-1,-1,-1,-1,-1,-1,-1,-1,-1,-1,-1,-1,-1,-1,-1,-1,-1,-1,-1,-1,-1,-1,-1,-1,-1,-1,-1],"loss_changes":[3.1756454E2,1.7751505E2,2.5111353E2,3.066616E1,4.8052017E1,2.1480182E2,1.3196368E2,2.5654842E1,4.4122543E0,2.5964615E1,1.0977455E1,2.0453937E2,0E0,7.2237635E-1,8.4054016E1,2.6383999E1,1.0657272E0,1.4202442E0,7.0687103E-1,2.6460457E0,1.9738052E1,2.5056515E1,3.6262512E0,5.321065E2,4.2257477E1,0E0,1.6909204E0,1.2608197E2,0E0,2.3188236E1,1.6452402E2,8.6563873E-1,1.0873218E0,2.9209113E-1,1.1160946E0,5.93915E-1,2.1252179E-1,1.5561218E0,0E0,2.6052948E1,3.0204182E1,9.644451E0,8.220375E0,0E0,7.649975E0,1.0639804E2,8.729796E2,0E0,3.1793264E1,0E0,6.789846E-2,2.5348694E1,0E0,0E0,0E0,0E0,0E0,0E0,0E0,0E0,0E0,0E0,0E0,0E0,0E0,0E0,0E0,0E0,0E0,0E0,0E0,0E0,0E0,0E0,0E0,0E0,0E0,0E0,0E0,0E0,0E0,0E0,0E0,0E0,0E0,0E0,0E0,0E0,0E0,0E0,0E0],"parents":[2147483647,0,0,1,1,2,2,3,3,4,4,5,5,6,6,7,7,8,8,9,9,10,10,11,11,13,13,14,14,15,15,16,16,17,17,18,18,19,19,20,20,21,21,22,22,23,23,24,24,26,26,27,27,29,29,30,30,31,31,32,32,33,33,34,34,35,35,36,36,37,37,39,39,40,40,41,41,42,42,44,44,45,45,46,46,48,48,50,50,51,51],"right_children":[2,4,6,8,10,12,14,16,18,20,22,24,-1,26,28,30,32,34,36,38,40,42,44,46,48,-1,50,52,-1,54,56,58,60,62,64,66,68,70,-1,72,74,76,78,-1,80,82,84,-1,86,-1,88,90,-1,-1,-1,-1,-1,-1,-1,-1,-1,-1,-1,-1,-1,-1,-1,-1,-1,-1,-1,-1,-1,-1,-1,-1,-1,-1,-1,-1,-1,-1,-1,-1,-1,-1,-1,-1,-1,-1,-1],"split_conditions":[1E0,1E0,1E0,1E0,1.6537653E0,1E0,2.0729402E-1,1E0,1E0,-1.8053609E0,1.8948439E0,6.090916E-1,-3.4452435E-2,1.9204932E-1,2.8765354E-1,1E0,1E0,-1.8053609E0,6.090916E-1,1.2519678E0,1.4318212E0,-5.65589E-1,-1.185475E0,4.6574987E-2,-1.3232274E0,-8.6974865E-3,2.6092553E-1,1E0,-8.6974865E-3,1E0,1E0,1E0,4.6574987E-2,6.090916E-1,-1.1588178E0,1.269345E-1,1.0108892E0,-4.3558213E-1,-6.807623E-2,-3.552226E-1,-4.3558213E-1,-1.3921037E0,-3.589604E-1,6.9791496E-1,1.9752034E0,1E0,2.0729402E-1,-3.021871E-1,2.6092553E-1,4.6519542E-1,1E0,1.9204932E-1,-8.6974865E-3,-7.2794026E-3,2.0591162E-2,1.4240086E-2,6.1974794E-1,2.159796E-2,5.1152557E-2,7.145853E-2,-5.5216968E-2,1.17650665E-1,4.2777E-2,6.3148285E-3,2.3564395E-2,4.711522E-2,7.155696E-2,3.823372E-2,6.3118716E-3,2.5853172E-1,4.5577464E-1,1.4504015E-2,7.872496E-2,3.8946053E-1,9.69382E-2,3.2681328E-1,-6.555415E-2,6.325931E-1,2.824552E-1,5.098327E-1,6.827876E-2,4.4988733E-2,4.2786354E-1,1.1313951E0,2.1900715E-1,9.109272E-2,-5.4480527E-2,7.952371E-2,-8.6974865E-3,9.847853E-1,4.3419085E0],"split_indices":[64,40,7,71,1,27,1,61,35,0,1,1,0,0,1,45,19,0,1,1,0,0,0,1,0,0,0,35,0,59,8,2,1,1,1,1,1,1,0,1,1,0,0,0,1,19,1,0,0,0,35,0,0,0,0,0,0,0,0,0,0,0,0,0,0,0,0,0,0,0,0,0,0,0,0,0,0,0,0,0,0,0,0,0,0,0,0,0,0,0,0],"split_type":[0,0,0,0,0,0,0,0,0,0,0,0,0,0,0,0,0,0,0,0,0,0,0,0,0,0,0,0,0,0,0,0,0,0,0,0,0,0,0,0,0,0,0,0,0,0,0,0,0,0,0,0,0,0,0,0,0,0,0,0,0,0,0,0,0,0,0,0,0,0,0,0,0,0,0,0,0,0,0,0,0,0,0,0,0,0,0,0,0,0,0],"sum_hessian":[1.1518E5,1.12414E5,2.766E3,1.09659E5,2.755E3,2.757E3,9E0,1.06873E5,2.786E3,2.643E3,1.12E2,1.945E3,8.12E2,4E0,5E0,1.0412E5,2.753E3,2.269E3,5.17E2,2.7E1,2.616E3,9.2E1,2E1,1.368E3,5.77E2,1E0,3E0,4E0,1E0,1.01377E5,2.743E3,2.683E3,7E1,2.4E1,2.245E3,3.81E2,1.36E2,2.6E1,1E0,2.377E3,2.39E2,3.4E1,5.8E1,5E0,1.5E1,8.92E2,4.76E2,3.8E1,5.39E2,1E0,2E0,3E0,1E0,9.8616E4,2.761E3,2.703E3,4E1,2.591E3,9.2E1,6.4E1,6E0,1.5E1,9E0,4.15E2,1.83E3,2.05E2,1.76E2,1.13E2,2.3E1,1.3E1,1.3E1,9.42E2,1.435E3,3.7E1,2.02E2,6E0,2.8E1,7E0,5.1E1,9E0,6E0,8.22E2,7E1,1.29E2,3.47E2,2.8E2,2.59E2,1E0,1E0,1E0,2E0],"tree_param":{"num_deleted":"0","num_feature":"95","num_nodes":"91","size_leaf_vector":"1"}},{"base_weights":[9.260291E-5,-8.08903E-3,3.3471808E-1,-1.5197129E-2,2.7605656E-1,4.1793275E-1,1.314639E-1,-2.0236723E-2,1.8071327E-1,2.087282E-1,4.70971E0,8.496762E-3,4.433506E-1,4.538573E-2,1.7119405E-1,-2.547034E-2,1.7717572E-1,2.9754597E-1,-2.9154977E-2,3.7016153E-1,-1.7869015E-1,7.0188904E0,-1.4557155E0,-1.7585802E-1,2.6948902E-1,4.7219342E-1,2.3222202E-2,1.7565218E-1,3.6597393E-2,2.8002962E-1,1.2010156E-1,-3.0426582E-2,1.5707041E-1,2.7418244E-1,1.7470364E-1,2.6368827E-1,1.2533655E0,8.9502686E-1,1.6354407E-1,-8.272643E-4,-2.379764E-1,-2.3187213E-1,1.1865614E1,-2.4876103E0,7.4075156E-1,-6.767455E-2,-4.5241814E-2,-9.188332E-2,3.4356138E-1,4.8802808E-1,-2.8119367E-1,-4.6327457E-1,2.4838872E-1,-1.0222549E-1,6.992608E-2,-1.742402E-2,3.2319677E-1,2.4928035E-1,5.5031773E-2,-1.0573776E-2,4.204642E-2,4.5183163E-2,1.1971787E-1,5.9479523E-2,3.5193544E-2,6.4933926E-2,1.5257E-1,1.0195957E0,1.3191666E-1,1.1074057E0,2.0266873E-1,8.8420674E-2,-1.317235E-2,7.2186E-2,-5.5524718E-2,-5.879213E-2,-7.9936266E-2,-1.191396E0,7.8050935E-1,1.505169E0,7.417853E0,4.2233786E-1,-1.8352756E-1,6.9802836E-2,-7.497304E-2,1.4743777E-1,-1.0663737E-2,3.253414E-2,1.561586E-1,-1.4643994E-1,-4.290141E-2,-8.192341E-2,-1.9782993E-1,1.5108347E-1,-1.873147E-1,6.2996954E-2,-4.0393323E-2,4.1778192E-2,-5.602393E-3,-7.87222E-2,2.5342925E-2,7.215847E-2,1.3938622E-1,1.9898253E-2,2.2719623E-1,3.582947E-2,-4.3838695E-3],"categories":[],"categories_nodes":[],"categories_segments":[],"categories_sizes":[],"default_left":[0,0,0,0,0,0,0,0,0,0,0,0,0,0,0,0,0,0,0,0,0,0,0,0,0,0,0,0,0,0,0,0,0,0,0,0,0,0,0,0,0,0,0,0,0,0,0,0,0,0,0,0,0,0,0,0,0,0,0,0,0,0,0,0,0,0,0,0,0,0,0,0,0,0,0,0,0,0,0,0,0,0,0,0,0,0,0,0,0,0,0,0,0,0,0,0,0,0,0,0,0,0,0,0,0,0,0],"id":14,"left_children":[1,3,5,7,9,11,13,15,17,19,21,23,25,27,29,31,33,35,-1,37,39,41,43,45,47,49,51,-1,53,55,57,59,61,-1,63,65,67,69,71,73,75,77,79,-1,81,-1,83,-1,85,87,89,91,93,95,97,99,101,103,105,-1,-1,-1,-1,-1,-1,-1,-1,-1,-1,-1,-1,-1,-1,-1,-1,-1,-1,-1,-1,-1,-1,-1,-1,-1,-1,-1,-1,-1,-1,-1,-1,-1,-1,-1,-1,-1,-1,-1,-1,-1,-1,-1,-1,-1,-1,-1,-1],"loss_changes":[3.1534326E2,2.2708905E2,4.6440887E1,1.0830159E2,8.1813007E2,2.0289886E1,2.7281485E0,1.1049289E2,8.934675E1,1.6918034E2,5.9393774E2,5.5806375E0,2.223706E1,1.1842511E0,3.0080585E0,9.42572E1,4.8708496E0,6.235443E1,0E0,2.0687772E2,8.393482E0,1.0570245E3,1.8633131E2,4.314363E-1,2.1523483E0,2.0632355E1,1.3150664E1,0E0,1.1684713E0,2.23983E0,3.1299891E0,8.338618E1,4.2450027E0,0E0,3.700798E0,2.1546173E1,1.1370845E2,3.282873E2,3.7325977E1,8.942114E0,6.618805E-1,1.4807999E2,1.4612761E3,0E0,9.88303E0,0E0,1.1957679E0,0E0,2.4284415E0,2.0706024E1,9.596777E-1,1.2376528E0,1.8580038E1,5.242364E-1,1.2496483E0,5.96337E-1,1.6653261E0,1.1568199E1,1.1230208E0,0E0,0E0,0E0,0E0,0E0,0E0,0E0,0E0,0E0,0E0,0E0,0E0,0E0,0E0,0E0,0E0,0E0,0E0,0E0,0E0,0E0,0E0,0E0,0E0,0E0,0E0,0E0,0E0,0E0,0E0,0E0,0E0,0E0,0E0,0E0,0E0,0E0,0E0,0E0,0E0,0E0,0E0,0E0,0E0,0E0,0E0,0E0,0E0],"parents":[2147483647,0,0,1,1,2,2,3,3,4,4,5,5,6,6,7,7,8,8,9,9,10,10,11,11,12,12,13,13,14,14,15,15,16,16,17,17,19,19,20,20,21,21,22,22,23,23,24,24,25,25,26,26,28,28,29,29,30,30,31,31,32,32,34,34,35,35,36,36,37,37,38,38,39,39,40,40,41,41,42,42,44,44,46,46,48,48,49,49,50,50,51,51,52,52,53,53,54,54,55,55,56,56,57,57,58,58],"right_children":[2,4,6,8,10,12,14,16,18,20,22,24,26,28,30,32,34,36,-1,38,40,42,44,46,48,50,52,-1,54,56,58,60,62,-1,64,66,68,70,72,74,76,78,80,-1,82,-1,84,-1,86,88,90,92,94,96,98,100,102,104,106,-1,-1,-1,-1,-1,-1,-1,-1,-1,-1,-1,-1,-1,-1,-1,-1,-1,-1,-1,-1,-1,-1,-1,-1,-1,-1,-1,-1,-1,-1,-1,-1,-1,-1,-1,-1,-1,-1,-1,-1,-1,-1,-1,-1,-1,-1,-1,-1],"split_conditions":[1E0,1E0,1E0,1E0,1E0,-1.2391773E0,-1.2391773E0,1E0,1E0,1E0,2.8765354E-1,1E0,1E0,-1.5987322E0,-1.9450356E-1,1E0,-1.8742372E0,1E0,-2.9154977E-2,1E0,-1.2543511E0,1.269345E-1,1E0,-1.3195368E0,-1.7213343E0,1E0,5.2873206E-1,1.7565218E-1,-8.410939E-1,-1.7364846E0,-1.1165987E0,1E0,1E0,2.7418244E-1,1E0,1.0874401E0,8.1193525E-1,1E0,4.6755418E-1,-5.159416E-1,-2.2120796E-1,1E0,-1.4579316E-2,-2.4876103E0,3.6801305E-1,-6.767455E-2,5.42969E-2,-9.188332E-2,3.9867797E-1,-1.2543511E0,2.0729402E-1,1.707326E0,1.0912488E0,-1.5298561E0,3.9867797E-1,-1.8742372E0,-6.7666066E-1,-1.3232274E0,1.4930463E0,-1.0573776E-2,4.204642E-2,4.5183163E-2,1.1971787E-1,5.9479523E-2,3.5193544E-2,6.4933926E-2,1.5257E-1,1.0195957E0,1.3191666E-1,1.1074057E0,2.0266873E-1,8.8420674E-2,-1.317235E-2,7.2186E-2,-5.5524718E-2,-5.879213E-2,-7.9936266E-2,-1.191396E0,7.8050935E-1,1.505169E0,7.417853E0,4.2233786E-1,-1.8352756E-1,6.9802836E-2,-7.497304E-2,1.4743777E-1,-1.0663737E-2,3.253414E-2,1.561586E-1,-1.4643994E-1,-4.290141E-2,-8.192341E-2,-1.9782993E-1,1.5108347E-1,-1.873147E-1,6.2996954E-2,-4.0393323E-2,4.1778192E-2,-5.602393E-3,-7.87222E-2,2.5342925E-2,7.215847E-2,1.3938622E-1,1.9898253E-2,2.2719623E-1,3.582947E-2,-4.3838695E-3],"split_indices":[44,45,27,84,8,1,1,59,27,27,1,9,17,0,1,61,0,12,0,37,0,1,35,1,1,32,1,0,0,0,0,71,19,0,27,0,0,35,0,1,0,35,0,0,1,0,0,0,0,0,1,0,1,0,0,0,1,0,1,0,0,0,0,0,0,0,0,0,0,0,0,0,0,0,0,0,0,0,0,0,0,0,0,0,0,0,0,0,0,0,0,0,0,0,0,0,0,0,0,0,0,0,0,0,0,0,0],"split_type":[0,0,0,0,0,0,0,0,0,0,0,0,0,0,0,0,0,0,0,0,0,0,0,0,0,0,0,0,0,0,0,0,0,0,0,0,0,0,0,0,0,0,0,0,0,0,0,0,0,0,0,0,0,0,0,0,0,0,0,0,0,0,0,0,0,0,0,0,0,0,0,0,0,0,0,0,0,0,0,0,0,0,0,0,0,0,0,0,0,0,0,0,0,0,0,0,0,0,0,0,0,0,0,0,0,0,0],"sum_hessian":[1.1518E5,1.12432E5,2.748E3,1.09689E5,2.743E3,1.949E3,7.99E2,1.06939E5,2.75E3,2.703E3,4E1,1.14E2,1.835E3,2.53E2,5.46E2,1.04178E5,2.761E3,1.936E3,8.14E2,1.908E3,7.95E2,2.9E1,1.1E1,6.7E1,4.7E1,1.717E3,1.18E2,3E0,2.5E2,1.73E2,3.73E2,1.01425E5,2.753E3,8E0,2.753E3,1.871E3,6.5E1,5.38E2,1.37E3,1.99E2,5.96E2,1.2E1,1.7E1,2E0,9E0,4.8E1,1.9E1,5E0,4.2E1,1.682E3,3.5E1,3.7E1,8.1E1,4.8E1,2.02E2,2.2E1,1.51E2,1.24E2,2.49E2,9.8639E4,2.786E3,2.683E3,7E1,1.95E3,8.03E2,1.57E3,3.01E2,1.7E1,4.8E1,3.8E1,5E2,8.39E2,5.31E2,8.6E1,1.13E2,2.44E2,3.52E2,5E0,7E0,1.2E1,5E0,6E0,3E0,8E0,1.1E1,3E1,1.2E1,1.33E2,1.549E3,1.3E1,2.2E1,2E1,1.7E1,6.3E1,1.8E1,4E0,4.4E1,1.13E2,8.9E1,6E0,1.6E1,9.7E1,5.4E1,9.2E1,3.2E1,1.29E2,1.2E2],"tree_param":{"num_deleted":"0","num_feature":"95","num_nodes":"107","size_leaf_vector":"1"}},{"base_weights":[1.1539932E-3,-1.70548E-3,1.1651372E-1,-5.1955082E-3,4.2260386E-2,2.1369083E-2,2.17626E0,-5.4378253E-3,-8.557359E-4,2.2083968E-2,8.0866975E-1,1.1678593E-2,3.7006447E-1,1.4253025E1,2.3718277E-1,-5.4549347E-3,-4.84336E-3,-1.7141904E-3,6.5858394E-2,-1.3702755E-2,4.855983E-2,1.5578209E-1,4.2221465E0,2.7336177E-1,6.530859E-3,6.70656E-1,-1.6509028E-3,2.2815192E0,2.4640862E1,3.1907964E0,-1.4781535E-3,-1.6404741E-3,-5.004935E-3,-5.084084E-3,-4.2255064E-3,-4.6434114E-3,1.1701898E-2,-2.0775602E-3,1.3479082E-1,-2.3000471E-2,1.9238453E-1,4.184838E-2,1.9813579E0,7.6141036E-1,-7.193978E-2,6.787286E0,-8.879718E0,5.974232E-1,-2.5944742E-3,-9.6505005E-3,7.014607E-2,-1.6535542E-3,1.92679E0,3.0978658E0,-6.3738817E-1,1.1774251E-1,3.1630648E1,2.6346922E-1,4.894499E0,-9.132983E-3,2.2584277E-3,-1.354665E-3,-1.8488492E-3,-1.6538671E-3,-1.4714095E-3,-1.31238E-3,-1.0688249E-3,-1.5207117E-3,3.931135E-2,-2.4358425E-3,9.4987005E-3,6.2316168E-2,9.193843E-3,-1.243555E-3,-1.6116615E-2,-5.7741143E-3,2.8804517E-1,6.786339E-2,-3.2163216E-3,1.9906874E0,-3.6909897E-2,1.1127836E0,-2.6868882E-2,-3.6991906E-1,4.081609E-3,-1.9032449E-1,7.0051336E0,-1.1027117E0,-5.234967E0,-2.3923194E-2,9.1535217E-1,-2.5111488E-3,6.7820936E-4,-2.2384005E-3,-1.130973E-1,1.1353561E-2,2.1922109E-1,7.8852E-1,1.659731E-1,-1.4589197E-2,1.4986471E0,-2.0665541E-2,7.3649675E-2,1.3157193E1,2.1279874E-1,8.5311955E-1,-1.1215978E0,1.6312543E0,4.0836555E-1,-1.6518737E-3,-3.6667462E-3,1.0273244E-2,-1.3545089E-3],"categories":[],"categories_nodes":[],"categories_segments":[],"categories_sizes":[],"default_left":[0,0,0,0,0,0,0,0,0,0,0,0,0,0,0,0,0,0,0,0,0,0,0,0,0,0,0,0,0,0,0,0,0,0,0,0,0,0,0,0,0,0,0,0,0,0,0,0,0,0,0,0,0,0,0,0,0,0,0,0,0,0,0,0,0,0,0,0,0,0,0,0,0,0,0,0,0,0,0,0,0,0,0,0,0,0,0,0,0,0,0,0,0,0,0,0,0,0,0,0,0,0,0,0,0,0,0,0,0,0,0,0,0],"id":15,"left_children":[1,3,5,7,9,11,13,15,17,19,21,23,25,27,29,31,33,35,37,39,41,43,45,47,49,51,-1,53,55,57,59,-1,61,63,65,67,69,-1,71,73,75,77,79,81,83,85,87,89,91,93,95,-1,97,99,-1,101,103,105,107,109,111,-1,-1,-1,-1,-1,-1,-1,-1,-1,-1,-1,-1,-1,-1,-1,-1,-1,-1,-1,-1,-1,-1,-1,-1,-1,-1,-1,-1,-1,-1,-1,-1,-1,-1,-1,-1,-1,-1,-1,-1,-1,-1,-1,-1,-1,-1,-1,-1,-1,-1,-1,-1],"loss_changes":[3.7994736E1,1.72465E1,5.459365E2,1.09499454E-1,1.2780256E2,8.997409E0,2.8770066E3,9.765625E-4,3.1556177E-1,7.6326513E0,4.7180908E2,3.4911814E0,8.131944E0,2.0578684E3,7.543032E1,5.469322E-4,3.9020926E-4,2.137999E-1,3.5213396E-1,6.569125E0,5.9976856E1,2.4741524E1,1.2029448E3,4.472889E0,2.6194212E0,3.3984917E1,0E0,3.89543E1,1.5389775E3,3.8608803E1,2.8809155E-3,0E0,1.5395433E-3,1.2580305E-4,6.168615E-5,2.5851658E-1,3.8600922E-1,0E0,2.6706296E-1,1.8991842E0,2.406604E1,4.4730347E1,1.5752673E2,1.232515E2,1.3028809E1,3.5796914E3,2.0345508E2,3.8460094E1,8.0414326E-4,1.6288465E0,1.0982575E1,0E0,1.2037563E1,4.8009872E1,0E0,8.843984E-2,2.6153433E3,5.1937904E1,2.1914902E0,3.024591E-4,1.488708E-2,0E0,0E0,0E0,0E0,0E0,0E0,0E0,0E0,0E0,0E0,0E0,0E0,0E0,0E0,0E0,0E0,0E0,0E0,0E0,0E0,0E0,0E0,0E0,0E0,0E0,0E0,0E0,0E0,0E0,0E0,0E0,0E0,0E0,0E0,0E0,0E0,0E0,0E0,0E0,0E0,0E0,0E0,0E0,0E0,0E0,0E0,0E0,0E0,0E0,0E0,0E0,0E0],"parents":[2147483647,0,0,1,1,2,2,3,3,4,4,5,5,6,6,7,7,8,8,9,9,10,10,11,11,12,12,13,13,14,14,15,15,16,16,17,17,18,18,19,19,20,20,21,21,22,22,23,23,24,24,25,25,27,27,28,28,29,29,30,30,32,32,33,33,34,34,35,35,36,36,38,38,39,39,40,40,41,41,42,42,43,43,44,44,45,45,46,46,47,47,48,48,49,49,50,50,52,52,53,53,55,55,56,56,57,57,58,58,59,59,60,60],"right_children":[2,4,6,8,10,12,14,16,18,20,22,24,26,28,30,32,34,36,38,40,42,44,46,48,50,52,-1,54,56,58,60,-1,62,64,66,68,70,-1,72,74,76,78,80,82,84,86,88,90,92,94,96,-1,98,100,-1,102,104,106,108,110,112,-1,-1,-1,-1,-1,-1,-1,-1,-1,-1,-1,-1,-1,-1,-1,-1,-1,-1,-1,-1,-1,-1,-1,-1,-1,-1,-1,-1,-1,-1,-1,-1,-1,-1,-1,-1,-1,-1,-1,-1,-1,-1,-1,-1,-1,-1,-1,-1,-1,-1,-1,-1],"split_conditions":[1E0,1E0,1E0,1E0,1E0,1E0,-1.9450356E-1,1E0,1E0,-1.1414405E-1,4.6574987E-2,-1.7364846E0,-1.1414405E-1,-2.748631E-1,-1.1414405E-1,1E0,1E0,1E0,1E0,1E0,1E0,1.2251925E0,1.5006974E0,-1.1414405E-1,1E0,-2.748631E-1,-1.6509028E-3,-1.3921037E0,-1.6676085E0,-1.5987322E0,3.6801305E-1,-1.6404741E-3,1E0,1E0,1.4930463E0,1E0,1E0,-2.0775602E-3,5.2873206E-1,3.2980177E-1,-9.9809873E-1,2.8765354E-1,4.6755418E-1,-5.159416E-1,-5.9630114E-1,1.4318212E0,1E0,-3.552226E-1,7.698106E-1,1E0,8.8081145E-1,-1.6535542E-3,-9.099701E-1,-1.5298561E0,-6.3738817E-1,-1.7364846E0,-1.3921037E0,-1.6676085E0,-1.3921037E0,-1.4609798E0,5.2873206E-1,-1.354665E-3,-1.8488492E-3,-1.6538671E-3,-1.4714095E-3,-1.31238E-3,-1.0688249E-3,-1.5207117E-3,3.931135E-2,-2.4358425E-3,9.4987005E-3,6.2316168E-2,9.193843E-3,-1.243555E-3,-1.6116615E-2,-5.7741143E-3,2.8804517E-1,6.786339E-2,-3.2163216E-3,1.9906874E0,-3.6909897E-2,1.1127836E0,-2.6868882E-2,-3.6991906E-1,4.081609E-3,-1.9032449E-1,7.0051336E0,-1.1027117E0,-5.234967E0,-2.3923194E-2,9.1535217E-1,-2.5111488E-3,6.7820936E-4,-2.2384005E-3,-1.130973E-1,1.1353561E-2,2.1922109E-1,7.8852E-1,1.659731E-1,-1.4589197E-2,1.4986471E0,-2.0665541E-2,7.3649675E-2,1.3157193E1,2.1279874E-1,8.5311955E-1,-1.1215978E0,1.6312543E0,4.0836555E-1,-1.6518737E-3,-3.6667462E-3,1.0273244E-2,-1.3545089E-3],"split_indices":[43,50,18,67,3,19,1,42,6,1,1,0,1,1,1,76,36,35,38,31,24,0,0,1,35,1,0,0,0,0,1,0,27,37,1,7,38,0,1,0,1,1,0,1,1,0,83,1,1,26,0,0,0,0,0,0,0,0,0,0,1,0,0,0,0,0,0,0,0,0,0,0,0,0,0,0,0,0,0,0,0,0,0,0,0,0,0,0,0,0,0,0,0,0,0,0,0,0,0,0,0,0,0,0,0,0,0,0,0,0,0,0,0],"split_type":[0,0,0,0,0,0,0,0,0,0,0,0,0,0,0,0,0,0,0,0,0,0,0,0,0,0,0,0,0,0,0,0,0,0,0,0,0,0,0,0,0,0,0,0,0,0,0,0,0,0,0,0,0,0,0,0,0,0,0,0,0,0,0,0,0,0,0,0,0,0,0,0,0,0,0,0,0,0,0,0,0,0,0,0,0,0,0,0,0,0,0,0,0,0,0,0,0,0,0,0,0,0,0,0,0,0,0,0,0,0,0,0,0],"sum_hessian":[1.1518E5,1.12395E5,2.785E3,1.0413E5,8.265E3,2.663E3,1.22E2,9.8623E4,5.507E3,8.054E3,2.11E2,2.592E3,7.1E1,1.6E1,1.06E2,9.5856E4,2.767E3,5.438E3,6.9E1,3.425E3,4.629E3,1.78E2,3.3E1,4.9E1,2.543E3,3.9E1,3.2E1,8E0,8E0,7E0,9.9E1,9.3091E4,2.765E3,1.986E3,7.81E2,4.464E3,9.74E2,3.4E1,3.5E1,3.278E3,1.47E2,4.614E3,1.5E1,4.8E1,1.3E2,2.8E1,5E0,2.2E1,2.7E1,2.028E3,5.15E2,2.6E1,1.3E1,7E0,1E0,2E0,6E0,3E0,4E0,3.2E1,6.7E1,1.947E3,8.18E2,5.77E2,1.409E3,6.33E2,1.48E2,4.451E3,1.3E1,4.89E2,4.85E2,2E1,1.5E1,2.032E3,1.246E3,1.16E2,3.1E1,1.023E3,3.591E3,4E0,1.1E1,1E1,3.8E1,8E0,1.22E2,2E1,8E0,4E0,1E0,1.8E1,4E0,1.2E1,1.5E1,2.017E3,1.1E1,4.92E2,2.3E1,8E0,5E0,3E0,4E0,1E0,1E0,4E0,2E0,2E0,1E0,3E0,1E0,1.6E1,1.6E1,1.1E1,5.6E1],"tree_param":{"num_deleted":"0","num_feature":"95","num_nodes":"113","size_leaf_vector":"1"}},{"base_weights":[2.46465E-4,-2.5651224E-3,1.146847E-1,-2.0494968E-2,8.7065585E-3,3.5326985E-1,1.0577531E-1,-1.8703906E-2,-3.1303203E-1,5.7742927E-2,-1.1564208E-2,4.8022738E-1,-1.722239E-1,9.942065E-2,2.4450177E-1,-1.5898142E-2,-1.2994103E-1,-1.9857813E-2,-2.5852287E0,4.119943E-2,7.091104E-1,-1.4055192E-2,8.7422036E-2,4.2336604E-1,1.0127292E0,5.094485E-1,-3.7448254E-1,1.0444692E-1,-6.1148055E-2,1.9376679E-1,4.6479014E-1,-1.7787157E-2,